-0.00079439167 
0.04382493 
-0.00049095019 
-0.03742766 
0.0046611358 
0.016420575 
0.031270433 
-0.0054478883 
-0.029709008 
-0.0059033534 
0.030502001 
0.043952744 
-0.0029978815 
-0.012939493 
0.022355605 
-0.01049349 
0.021174913 
-0.019139763 
0.043467842 
0.029539745 
-0.041911684 
-0.042024843 
0.0034955489 
-0.031108325 
0.014072928 
-0.021998985 
-0.01278429 
0.0066960701 
-0.015096179 
0.0092324354 
-0.012088401 
-0.01728531 
0.011876339 
0.034728374 
-0.011774088 
0.042530347 
-0.0064971317 
-0.028263655 
0.035255536 
0.028451703 
0.022103382 
0.0083437953 
-0.0059732306 
-0.0071548042 
-0.02848327 
0.039935991 
0.004911941 
0.042913795 
0.039199688 
-0.037976295 
0.038610391 
0.044151537 
0.034291461 
0.039168879 
0.03965836 
0.024116404 
-0.042230953 
-0.020406021 
-0.033540115 
-0.014472551 
0.0053582867 
0.0055744685 
-0.031596422 
0.034248158 
0.025411068 
-0.022099167 
-0.020774862 
0.029056881 
0.023575261 
0.038456123 
-0.0097313039 
-0.013084805 
-0.022775963 
0.0046376335 
0.031614061 
-0.011762835 
0.042416412 
-0.016260341 
-0.043340541 
-0.034527797 
0.029603492 
-0.0071344604 
-0.026877368 
0.0096318508 
0.036932718 
-0.023005502 
0.026857283 
0.0099474303 
-0.0070759393 
-0.02917001 
0.0020286436 
0.0083280383 
0.018520948 
-0.034695003 
0.02132394 
-0.018756356 
-0.038311642 
-0.0098570576 
-0.036864515 
0.013642303 
0.042371001 
0.036926918 
0.033202674 
-0.030177861 
-0.036682766 
0.011022607 
0.0057489146 
-0.0029623229 
0.041389111 
0.014867912 
-0.038508132 
0.043464322 
-0.028778322 
-0.035603952 
-0.038078535 
-0.017528042 
0.035226695 
0.012369147 
0.011243109 
-0.0042641861 
-0.026129814 
0.029835649 
-0.0039591775 
0.010367966 
-0.028868346 
0.032495867 
-0.021971697 
0.041239649 
-0.030058201 
-0.035449598 
-0.036214054 
-0.029864583 
-0.0084252842 
-0.029733334 
-0.0014977804 
-0.0054752892 
0.010787886 
0.00045402165 
-0.03110511 
0.0010760353 
-0.034692571 
0.030552056 
-0.015000953 
-0.028105965 
-0.00079708645 
-0.014641074 
-0.0071395128 
0.034909409 
0.011672948 
-0.0091847098 
-0.034563087 
-0.0025001273 
0.016845478 
-0.031076906 
-0.035522401 
-0.035886981 
0.033673335 
-0.0077378661 
-0.0052677738 
0.00048292385 
-0.035801865 
0.027905801 
0.038686655 
0.0059797633 
-0.0019184191 
0.039546117 
0.017606603 
0.036683276 
0.030412506 
0.035909113 
-3.1080664e-05 
-0.0035038914 
0.042531554 
0.03527151 
-0.026182577 
0.040300038 
0.038330004 
0.040964108 
0.042827688 
0.018648895 
-0.028094331 
0.03281787 
0.0012095514 
-0.017546987 
0.023047857 
-0.043273155 
-0.0022349209 
0.030312298 
0.0098238662 
0.0086041577 
-0.010845016 
0.033996589 
0.0097051337 
-0.025117734 
-0.02854575 
0.031772997 
-0.01545388 
-0.0027686844 
-0.0063547329 
-0.039723799 
0.034952369 
-0.0013786182 
-0.029696237 
0.043487355 
-0.039861038 
0.034319486 
0.023847219 
0.032112833 
-0.02066955 
-0.025067294 
-0.0028746442 
-0.0080998493 
-0.0020032185 
0.0014430501 
-0.0064233243 
-0.032878596 
0.0059886877 
-0.042975318 
0.018117644 
-0.016366864 
0.0123967 
0.011450998 
0.021260772 
-0.030722987 
-0.0028947957 
0.028517643 
0.030099392 
0.0013900979 
0.024746099 
-0.042607922 
0.010434495 
0.02241835 
0.0019503138 
0.035179872 
-0.0223988 
-0.022198478 
0.018240528 
0.0041818051 
-0.033720568 
0.035548359 
-0.0086632185 
-0.026867917 
0.0035384912 
0.039298557 
0.026449481 
-0.043003652 
-0.030315293 
0.037549403 
0.010082453 
-0.035877101 
-0.0035619354 
-0.0098337363 
-0.01272613 
0.0083490638 
-0.035405226 
0.014186808 
0.040871717 
0.026146961 
0.030477913 
-0.022681471 
0.012869835 
-0.017475737 
-0.016722126 
-0.026990646 
-0.03092481 
-0.037373215 
-0.015545117 
-0.036199693 
0.030751357 
-0.0082544079 
-0.023923941 
0.018620925 
0.0054558832 
0.019025151 
-0.0329272 
0.0023230764 
0.014909321 
-0.023703966 
-0.00078841735 
0.040054783 
0.016375642 
-0.015374088 
0.030723523 
-0.037837058 
-0.042391978 
0.027055578 
0.012600174 
0.019173181 
-0.035301104 
-0.024947077 
0.041501712 
0.021005673 
-0.0080369376 
0.029991217 
-0.0060819164 
-0.026729118 
0.043513026 
0.023373399 
0.036691118 
-0.016821178 
-0.014366968 
-0.039887827 
0.013619501 
0.028184682 
0.0011585273 
-0.0039740657 
-0.0097183464 
-0.015070488 
0.024458058 
-0.019493932 
-0.0045576519 
-0.017419424 
0.0019343981 
-0.013301274 
-0.016599277 
0.0032710221 
0.041611474 
-0.017589999 
-0.028331485 
-0.007155655 
0.040851332 
0.0029756518 
-0.038459569 
-0.040777955 
-0.010893474 
-0.0064635063 
0.009944085 
-0.016714059 
0.017227741 
-0.0045625963 
-0.011857294 
0.012534194 
-0.018461062 
0.012143408 
0.036222182 
-0.013720635 
0.037438683 
-8.7296658e-06 
-0.016217751 
0.035394076 
0.031437259 
-0.018457239 
-0.010881508 
-0.026877476 
-0.01982986 
-0.023921968 
-0.042017583 
-0.036715601 
0.010771096 
-0.016471941 
0.020187434 
-0.043454412 
-0.03958948 
-0.037243955 
0.0027304098 
0.043024629 
-0.021381723 
0.007312383 
-0.04099834 
0.002720658 
-0.013976661 
-0.043359712 
0.0057178941 
-0.035816517 
0.012146759 
0.016708924 
0.024470938 
0.031406887 
-0.034287021 
0.023464583 
0.040227823 
0.013783379 
2.7643064e-05 
0.025583958 
-0.032163452 
0.0050233458 
-0.029400393 
-0.0373917 
0.033821274 
0.035774875 
0.019434903 
-0.035450965 
-0.030445792 
-0.024840254 
0.035520837 
0.020412251 
-0.038744956 
0.042694353 
-0.02877879 
-0.003576102 
-0.03647723 
0.033913407 
-0.032634608 
0.032902569 
-0.011056915 
0.00078181346 
0.027882891 
0.018795477 
0.023688352 
0.030388836 
-0.0075919093 
-0.0030818565 
0.018091882 
-0.018546265 
-0.029920965 
-0.0046797567 
0.041575518 
0.036547069 
0.042610385 
0.022296457 
0.0019432541 
-0.026830703 
-0.0050857207 
0.024033196 
-0.026078451 
0.016798563 
0.027148981 
-0.0031475318 
0.0024274108 
-0.029964469 
-0.033512767 
0.028691793 
0.0168615 
-0.028240759 
-0.013218013 
-0.037299506 
0.0063092513 
0.023959735 
-0.030465493 
0.03836472 
0.038777404 
0.0062487074 
-0.00084317138 
-0.0084032994 
-0.019127743 
0.0038163285 
0.020359624 
0.036479894 
-0.023462778 
0.014474708 
-0.034800328 
0.03613025 
0.025702212 
-0.04153813 
-0.036052529 
-0.043306895 
-0.019935323 
-0.025554763 
0.012595148 
0.031418417 
-0.012068395 
0.034390107 
-0.015943233 
-0.01767486 
0.016035164 
0.026653092 
0.028385544 
-0.0039738631 
0.0065379348 
0.020733694 
-0.005387044 
-0.03038957 
-0.043297723 
-0.015374673 
0.028584698 
-0.040813927 
-0.032304507 
-0.0052213594 
-0.015341213 
-0.026809361 
0.005628332 
-0.015410739 
-0.013203246 
0.040745679 
0.028655989 
-0.015171559 
-0.015327044 
-0.040738072 
0.012744633 
-0.034903318 
0.037753101 
0.032781418 
-0.03711018 
0.0062364847 
0.038367581 
-0.025826897 
0.0034606776 
-0.0068266592 
-0.016502585 
0.026339751 
-0.016577896 
0.0040071011 
0.00079405186 
0.033759441 
-0.020562528 
-0.03292165 
-0.011813197 
-0.019945361 
-0.019673703 
-0.025529906 
-0.011496386 
-0.036829356 
-0.034251016 
-0.030321134 
-0.0049470626 
0.043991562 
0.037699316 
0.0024143979 
-0.038740769 
0.017402397 
-0.021965377 
-0.014677355 
-0.022295319 
0.015670963 
-0.0032490583 
0.037279386 
-0.025110058 
0.017507637 
-0.013918098 
-0.015768385 
-0.0023913675 
0.029602423 
0.039042432 
-0.017325373 
-0.027724663 
0.031544909 
0.0063783512 
0.01682655 
-0.014995872 
-0.0014442381 
0.028429676 
0.017467108 
-0.0063985582 
-0.027928267 
-0.033749327 
-0.0035650386 
-0.027295439 
0.011361958 
-0.017736318 
-0.035385381 
0.023930253 
0.015306255 
-0.039095789 
-0.043335568 
0.02782716 
0.00047096994 
-0.042808868 
0.028730705 
-0.015105225 
0.003526058 
0.00087400974 
0.033189178 
-0.03362133 
0.00017953504 
0.042841461 
-0.019047754 
-0.015827673 
0.010517772 
-0.043397158 
-0.0076693804 
-0.033407275 
-0.0093355849 
0.040494885 
-0.0079886923 
-0.03536123 
0.0068578296 
-0.0036541079 
0.0296894 
0.01601409 
0.017423907 
-0.039669681 
0.028851714 
-0.017940849 
-0.024976822 
-0.021512404 
0.038140625 
0.0083909845 
-0.0011700202 
-0.033126999 
-0.0019224968 
0.0082598077 
-0.019347806 
-0.011546835 
-0.012570469 
0.011155191 
0.022187132 
0.00071225537 
0.014679241 
0.0017924369 
-0.019119028 
-0.012910067 
-0.010100327 
0.036338992 
0.0080161616 
-0.013343018 
0.025666466 
0.017690955 
0.0012581255 
0.019645862 
0.029501129 
-0.0020529467 
0.032251723 
-0.029952178 
-0.031353634 
-0.0092022773 
-0.026042938 
0.016608687 
-0.0095042139 
-0.0025526606 
0.023137281 
-0.042145249 
0.01761635 
0.0036821172 
0.041364275 
0.012929083 
0.021869278 
-0.036451362 
0.034498222 
0.031207502 
0.0083850939 
-0.0014033136 
-0.011630354 
0.013814925 
-0.0061635049 
0.023470247 
-0.02019692 
0.0060121794 
-0.0040551773 
0.044140056 
0.0028195505 
-0.018329723 
0.010869304 
0.036274206 
-0.035873983 
0.015015136 
0.0070408997 
0.0088655688 
-0.037101444 
-0.038750429 
0.026495758 
0.039758675 
0.024727672 
0.034074951 
-0.0020634464 
-0.039359264 
0.031522766 
-0.042334761 
3.8875198e-05 
0.019270657 
-0.0042797043 
-0.00019777936 
0.0063899257 
0.012118631 
-0.028465766 
-0.021879675 
0.0088186534 
0.031235186 
0.0044291597 
-0.00064980169 
0.039643537 
0.037537001 
-0.020513764 
-0.014991992 
0.025436113 
-0.024684139 
-0.0011225286 
0.010347161 
-0.018635303 
0.024194466 
-0.0098795872 
0.041668907 
0.024866903 
-0.028262628 
-0.017434742 
-0.035737257 
-0.043390371 
-0.030520817 
-0.0015609348 
-0.0043315394 
0.039317835 
-0.031842716 
0.023277614 
0.026683891 
0.041809909 
0.022776779 
0.032339085 
0.020900743 
0.022167988 
-0.0056128958 
0.010243813 
-0.022890449 
-0.0039841942 
-0.021843318 
0.020797051 
-0.024804192 
0.0062765507 
-0.029932575 
0.038507011 
0.0076495581 
-0.015315922 
0.036538377 
-0.0014023547 
0.040852122 
0.011781414 
0.025282467 
-0.020183636 
0.013380354 
0.010914711 
0.001225662 
-0.021289878 
-0.016730897 
-0.042628177 
0.0013777436 
-0.022127235 
0.042879883 
0.019338723 
-0.030975172 
0.020647561 
-0.026449824 
0.030989176 
-0.012650748 
-0.020822408 
-0.0011373142 
-0.030937031 
0.025319628 
-0.011425278 
0.0059731621 
-0.0056865579 
0.0047080191 
-0.036071431 
-0.044122707 
-0.0081480285 
0.03254183 
0.007520067 
0.018174358 
0.0049852817 
0.028083768 
-0.026291173 
-0.015063892 
-0.0040700263 
0.03546045 
-0.036169384 
-0.032806229 
-0.021874329 
0.037446912 
-0.022758085 
0.039672829 
-0.024032695 
-0.0093144085 
0.026370129 
0.021540985 
0.0035850636 
-0.043416012 
-0.031707946 
-0.027622724 
0.025765959 
-0.01233554 
-0.042107586 
0.040917303 
0.012810735 
0.0066137677 
0.034028243 
-0.0061738808 
0.0032237596 
0.010406094 
0.0015377013 
-0.033314109 
-0.013969591 
-0.014348194 
6.4579508e-05 
0.029889274 
0.026449028 
0.0027933877 
0.035753898 
0.03290052 
-0.039290641 
-0.012887392 
0.030494029 
-0.030240057 
0.038358841 
-0.0048069246 
0.030614227 
0.038692847 
-0.0076089231 
0.0077210916 
0.030794373 
-0.023458341 
0.010155299 
0.0088352328 
-0.034442149 
-0.017754646 
0.014107103 
0.0073376345 
-0.036550522 
-0.00040664332 
-0.0047645746 
-0.0091430396 
0.022820326 
0.0045100288 
0.017027901 
0.01173667 
0.043909281 
-0.0064487522 
0.035400361 
0.037355304 
0.013199998 
-0.0026884158 
-0.01484133 
0.014926696 
0.0053673484 
0.005793137 
0.0097770253 
-0.0009564858 
0.0078778779 
-0.010527086 
-0.019906448 
-0.026808932 
0.0080816159 
-0.03167773 
-0.02963398 
-0.029896598 
-0.0289673 
0.038013123 
-0.034815375 
-0.038348343 
-0.0030381135 
-0.011382478 
0.027951004 
-0.013036088 
0.04147226 
-0.016269116 
-0.039242551 
0.034598973 
0.04344926 
0.03373687 
0.03403575 
-0.034049928 
-0.013456274 
0.035306789 
0.020661797 
0.014091399 
-0.036975902 
0.033833023 
0.0090283602 
0.026713843 
0.0067997142 
0.031226078 
0.012333442 
0.006692993 
0.011722803 
0.024013851 
0.012243643 
-0.014142106 
-0.030564243 
-0.017514447 
-0.0074901059 
0.0027991934 
0.033291385 
-0.022957351 
0.01276195 
-0.029457532 
-0.020396082 
0.0018450468 
-0.00032560021 
-0.0041789575 
0.029388998 
-0.042761046 
-0.028832315 
-0.03958489 
-0.011612155 
0.013484136 
-0.014167163 
-0.015976747 
0.041350119 
0.027486267 
0.037906092 
0.022466103 
0.020996865 
0.01499136 
-0.0037312973 
-0.028585287 
0.043184336 
-0.010996481 
-0.032088123 
0.030244814 
-0.028098913 
-0.034795143 
-0.041854817 
-0.025104545 
-0.011931828 
0.012610374 
0.03399498 
0.00024680668 
-0.0028713646 
-0.042005781 
0.03694931 
0.010135311 
0.022219259 
-0.041905805 
-0.013911592 
0.013573092 
-0.033673551 
0.0021139646 
-0.021829896 
0.024592591 
-0.0050441241 
0.0043655601 
0.028504729 
-0.014559682 
0.0068646045 
0.0065566953 
0.023326647 
0.029051306 
0.027863523 
0.017927889 
-0.028925758 
-0.0018317389 
0.015315564 
0.0081541082 
-0.031385068 
-0.01438105 
0.036416035 
0.0084844343 
0.0048197606 
-0.026199868 
-0.012075159 
0.039245248 
-0.0064973766 
0.043032605 
0.035424788 
0.029620336 
-0.042169858 
0.018641256 
-0.020197369 
-0.010815996 
-0.014778397 
-0.029226547 
0.043618146 
-0.012308742 
-0.010067857 
0.019178148 
-0.03021053 
0.00075928599 
-0.039343227 
0.012903031 
0.013550127 
-0.0032333245 
0.034372218 
0.021237718 
-0.0030755636 
0.0081003923 
0.014364958 
-0.032120522 
-0.032845024 
-0.02811051 
-0.021898933 
-0.0060381154 
-0.033136923 
-0.0153948 
0.0022585969 
-0.013770974 
-0.041400548 
-0.030654242 
-0.016646825 
0.030766752 
0.013947609 
-0.0039198939 
0.0041436623 
0.038436193 
-0.03745871 
-1.1795849e-05 
0.0088121844 
0.02529756 
0.034171611 
-0.0071757482 
-0.037153143 
0.03764585 
-0.017846843 
-0.042152699 
-0.0040983092 
0.032315232 
0.0097207064 
-0.0045032115 
0.019382203 
0.029280653 
-0.0022210362 
0.039420906 
-0.0072667776 
0.0078027775 
0.021811411 
0.032139193 
-0.041910961 
0.0023096579 
0.037404254 
0.0026878836 
-0.014864205 
-0.0064571919 
0.0086519839 
-0.017928202 
-0.011698189 
0.016193988 
0.028314369 
0.036689389 
-0.0071778926 
-0.020616634 
0.028319115 
0.021930469 
0.014185828 
-0.008537774 
0.0035022397 
-0.040209308 
0.029621048 
0.025616433 
0.015802586 
-0.036402848 
0.017386686 
-0.04290802 
0.02454662 
-0.0091192294 
0.0040103728 
-0.0029925606 
-0.029144978 
0.017970646 
-0.019270854 
0.024673535 
-0.026567914 
-0.036215235 
0.01762615 
0.013434034 
0.032566004 
-0.00019545601 
-0.041800629 
0.0054107173 
0.04120053 
-0.018446185 
0.036730781 
-0.00062198739 
-0.0022538132 
-0.031443756 
0.007765857 
0.031490013 
0.0086157117 
-0.0056121899 
-0.0091978991 
-0.012014048 
-0.014907095 
-0.021938279 
-0.0006125886 
0.011245527 
0.0031570201 
-0.0018406082 
0.037302516 
-0.032944687 
0.037264004 
0.035428599 
0.029931469 
0.014386578 
-0.017518096 
0.020181159 
0.015749287 
-0.010105302 
0.0086542387 
-0.015690433 
-0.031499676 
-0.043248147 
-0.027332468 
0.02999177 
0.012611544 
0.038397696 
0.041100938 
0.0071550598 
0.02006395 
0.0029148918 
-0.033573743 
0.038224466 
-0.0099725602 
-0.0070876982 
-0.0032128436 
0.016662283 
0.0056279688 
0.04043195 
-0.020750763 
-0.024414299 
0.0098317536 
0.0086544175 
0.021185055 
0.00071392016 
-0.01540269 
0.01539607 
0.032007191 
0.032475073 
-0.023307528 
0.016162578 
0.013649889 
0.038377307 
0.02584018 
-0.020979734 
0.0013046926 
-0.042000271 
-0.0050036055 
-0.01538419 
-0.0030065665 
0.037104525 
-0.0046603349 
-0.014363077 
-0.0049647829 
-0.018402252 
0.0038312222 
0.0078530433 
0.033412497 
-0.026705144 
-0.01716367 
0.038323708 
-0.027300525 
0.0072580874 
0.042088654 
-0.031965934 
-0.0032252769 
0.0014553569 
0.0039969645 
-0.029530095 
-0.034644492 
-0.022792978 
0.032531813 
-0.01723453 
0.013666241 
-0.0021028458 
-0.023457427 
0.013143031 
0.013421284 
-0.025687469 
0.031274274 
-0.040505525 
0.016933655 
-0.035830885 
-0.043065142 
0.01796137 
0.020691395 
-0.041617319 
-0.013229806 
-0.022153279 
-0.0020449096 
0.02032361 
0.002046651 
-0.028723275 
0.0031202261 
-0.0092290351 
-0.025315911 
-0.032366578 
0.011008494 
-0.0090228263 
0.0086363107 
0.040862739 
0.008852371 
0.0057827374 
-0.004782516 
0.0018460214 
0.019219531 
-0.022395529 
0.032432467 
0.032686483 
-0.0098339682 
0.013172328 
0.023827968 
0.0079867328 
-0.037291247 
0.032509994 
0.035135921 
-0.041532651 
-0.015379335 
-0.019849671 
0.038329329 
-0.013920384 
-0.012432535 
0.024693828 
-0.030764032 
0.041101694 
0.022712562 
0.01724303 
0.0038472696 
-0.00068787078 
-0.022489978 
-0.011567458 
-0.043992791 
-0.00026220872 
0.025296506 
0.015363696 
-0.035084449 
-0.0342893 
-0.021563483 
-0.019062111 
-0.0042429124 
-0.04184974 
0.041008487 
-0.0051036091 
0.011523401 
0.0098413629 
0.037767455 
-0.0098438365 
0.013042226 
0.025511429 
-0.0085139005 
0.029313464 
0.0013755625 
-0.031504478 
0.01276185 
-0.016624006 
-0.0031571388 
0.023056643 
-0.042677205 
-0.018015957 
0.014711805 
-0.023883699 
-0.040585555 
0.010969097 
0.015543884 
-0.020641066 
-0.011233323 
-0.026124781 
-0.034475241 
0.028660094 
0.035117891 
0.034755375 
0.0039894995 
-0.010271387 
-0.031596418 
0.0027628681 
-0.0054713562 
-0.021659719 
-0.033743039 
-0.040616926 
0.0047572674 
-0.0014250613 
-0.033752266 
0.010054657 
-0.041496921 
-0.042859919 
-0.026235901 
0.041089226 
-0.017764162 
0.015199049 
0.0032994766 
-0.036012739 
-0.00098736107 
0.0058609038 
0.004325178 
-0.035253271 
-0.043300331 
0.016445911 
0.035904605 
0.01958671 
-0.025030181 
0.040076286 
0.0016120379 
0.036763426 
0.020541562 
0.0024769281 
0.043215275 
-0.013800724 
-0.010677313 
0.0074360264 
0.037903961 
-0.033027172 
0.014734021 
0.02685163 
-0.02984266 
-0.0025954661 
0.00034062029 
0.018959865 
-0.037959877 
-0.010820766 
0.018183526 
0.040356204 
-0.034475751 
0.025297986 
0.01844836 
0.021053735 
-0.010752364 
-0.017206604 
0.035978131 
0.02975812 
0.016883679 
0.03990531 
-0.034564454 
0.022568509 
-0.0046482044 
-0.037567876 
0.021443047 
-0.018274046 
-0.035839982 
0.020997712 
0.039236803 
0.036620643 
0.039474353 
-0.03960361 
-0.0077283303 
0.029192261 
0.016513377 
-0.017292891 
0.013839055 
0.022478841 
-0.0247529 
-0.03053922 
-0.035758469 
0.036509298 
0.0077665788 
-0.0036962628 
-0.035241172 
-0.033727348 
-0.043757334 
0.0026022359 
-0.042861469 
0.041288901 
0.031290069 
0.043467198 
-0.037722562 
0.025319749 
-0.024120398 
-0.0026295602 
0.03878903 
-0.044106767 
0.025105454 
-0.034987994 
-0.030228749 
-0.018831717 
0.040947244 
-0.0060764113 
-0.024878506 
0.0082246251 
-0.014762329 
-0.018443311 
-0.031823445 
-0.024326015 
0.00058490341 
0.010491552 
0.020243431 
-0.03972492 
0.025810782 
0.042071316 
-0.019002168 
-0.0095888423 
-0.017832076 
-0.016575616 
-0.017511504 
0.016839741 
-0.010641958 
-0.026227431 
0.014690094 
-0.024702271 
-0.035712592 
-0.011313853 
0.030791128 
-0.03362738 
-0.018706633 
-0.012508939 
0.014991602 
0.0094088884 
-0.026586933 
0.027219879 
-0.02223262 
0.040992394 
-0.021221489 
0.0029634554 
0.034005925 
0.02173919 
-0.012584232 
-0.038879074 
-0.034300327 
-0.042092457 
0.019301482 
-0.0067143328 
0.0257541 
0.0059030717 
0.040959723 
0.003697759 
-0.029581236 
0.012045227 
-0.01119975 
-0.017707501 
-0.0012633149 
0.033616725 
-0.0095667467 
-0.003023017 
0.025781412 
-0.031732 
0.037344642 
-0.012848899 
-0.024736192 
0.024092851 
0.0072659533 
0.018583536 
0.033127706 
-0.025392499 
-0.0076433732 
-0.015720505 
-0.0043837857 
-0.022179335 
-0.0029155267 
-0.031547766 
0.021923721 
0.016427455 
0.016140815 
-0.035091251 
-0.02523048 
-0.027850792 
-0.037929695 
-0.0080178455 
-0.019064873 
-0.0059800213 
0.021971921 
-0.03475228 
-0.0099832844 
0.035804216 
-0.028163068 
-0.036900342 
0.025382396 
0.043877583 
-0.026796862 
0.041029293 
-0.013772409 
-0.03704353 
0.022039972 
0.014038056 
-0.0035436542 
-0.021336215 
-0.035945673 
-0.025246011 
-0.027879402 
-0.011456301 
0.043570831 
0.041699216 
-0.040556554 
0.035379313 
-0.021836754 
-0.022241989 
0.031601857 
0.027850326 
-0.0091286572 
0.014745886 
0.013951365 
0.009384512 
0.0091916686 
-0.021123676 
-0.016258422 
0.024157625 
-0.029585982 
0.035134539 
-0.012687816 
0.019939905 
0.019974682 
0.0051977127 
0.0055857585 
-0.0057599647 
0.04335345 
-0.0054592076 
0.027155371 
-0.027668094 
0.027582962 
-0.02055989 
-0.013736696 
0.013138326 
0.026337139 
-0.0043498445 
-0.042901698 
0.012948823 
-0.032366242 
0.029163675 
0.017749807 
-0.041585751 
-0.030631829 
0.017963344 
-0.011561186 
0.017910013 
-0.037143737 
-0.0047549363 
0.0045578759 
0.00092597678 
0.013147372 
-0.035811815 
0.0062562358 
0.015615207 
-0.017256318 
0.043172002 
-0.005616447 
0.031901598 
0.017558893 
0.024604861 
-0.018229663 
0.0079869116 
0.032606754 
0.032755077 
0.0043073655 
0.041301008 
0.026625501 
-0.010686534 
0.028717866 
0.002620575 
0.0092590461 
0.016263921 
-0.0085590687 
-0.025552416 
0.024295207 
-0.03206015 
-0.010019143 
0.0016268209 
0.019766251 
-0.016346976 
0.038594231 
0.019074958 
-0.023450676 
-0.028100785 
0.036056034 
-0.036585908 
-0.0042991419 
-0.0041902107 
-0.017471725 
-0.022012532 
-0.031508256 
0.0038105545 
-0.035825882 
0.023871601 
-0.0091919433 
-0.019987194 
-0.013917144 
0.0042530489 
-0.024109656 
-0.031343952 
0.020372121 
-0.034629457 
0.0058992258 
0.0065617161 
-0.018200234 
-0.025524627 
0.0052865264 
-0.0098920921 
0.027737293 

