0.0039484696 
-0.034680262 
-0.013770592 
0.030239103 
-0.020729102 
0.012612423 
0.011397983 
0.035065372 
-0.032588854 
-0.033927638 
0.01534308 
0.040707886 
-0.0013222415 
-0.025627887 
0.036163781 
-0.033965819 
-0.038214572 
0.029146606 
0.010587078 
0.001629218 
0.021686461 
-0.014303749 
-0.0095645105 
0.041958351 
0.025509547 
0.0064546051 
-0.0040704766 
-0.0292095 
-0.023033701 
0.010616917 
-0.02054869 
-0.018421048 
-0.0053434907 
-0.0052921847 
0.016799727 
0.043814663 
-0.029821662 
0.038161628 
-0.034383211 
0.040017169 
0.0072636772 
0.0041283998 
-0.0091342255 
-0.02186426 
-0.032290574 
0.010211465 
0.04211266 
-0.00041796238 
-0.011626534 
0.02434767 
-0.034965031 
-0.016664295 
0.040635291 
0.014212165 
-0.038139116 
0.00047566934 
0.03557067 
-0.030360451 
-0.030794663 
-0.018464457 
0.023835797 
0.0058301473 
0.021286914 
-0.019833891 
0.018423973 
-0.0068739639 
0.016890502 
0.002617904 
-0.027673366 
0.035653848 
-0.0068264487 
-0.022903625 
-0.018969614 
0.036459293 
0.011759898 
0.037704807 
0.025113121 
0.034997772 
-0.040919118 
-0.00023241616 
0.025083613 
-0.0064825672 
0.021903416 
0.0083615975 
-0.039705638 
-0.038522631 
-0.021088241 
0.039409656 
0.027357161 
-0.014986131 
-0.0069662365 
0.029029479 
-0.026456287 
0.0043174913 
0.029812625 
0.0015996362 
0.02649915 
0.037781212 
-0.0036873382 
0.017349154 
0.028135765 
0.028550306 
0.040754907 
-0.041071232 
-0.019662382 
0.0017602051 
-0.031960778 
-0.033504281 
-0.032778867 
-0.04291676 
0.0032868641 
0.032988049 
0.041527942 
0.016507318 
-0.026368976 
0.0053445995 
0.012830865 
0.033335965 
-0.0080803037 
-0.011950009 
0.016562741 
0.037709426 
-0.037473869 
-0.0076654893 
-0.012988325 
0.014144056 
-0.039833941 
0.029398048 
-0.036814678 
0.014627417 
0.01293059 
0.015204586 
-0.0064464789 
-0.029542226 
-0.00029669536 
-0.005579995 
0.026694281 
-0.0058673415 
-0.017746955 
-0.0075065931 
0.030338302 
-0.013746506 
0.035601694 
0.032019503 
0.0088163195 
0.014412035 
0.041370455 
0.0083439955 
0.037646983 
-0.015581971 
-0.014512056 
0.006314978 
-0.019534502 
0.027198479 
0.021405019 
0.040305041 
0.029156694 
-0.026076023 
-0.012188091 
0.01313477 
-0.017868182 
0.025432935 
0.028986236 
-0.036655452 
-0.0072434573 
-0.013170044 
-0.0077089877 
0.034113444 
-0.015462765 
-0.035285547 
-0.030388243 
-0.0084973183 
0.03487866 
-0.014828507 
-0.01005343 
-0.0014765463 
0.028324731 
0.011044429 
-0.043605421 
-0.021093119 
-0.011178916 
0.034438774 
0.042484127 
0.010346951 
-0.037827492 
-0.037043139 
-0.026562274 
-0.026004724 
0.036728613 
-0.027372617 
0.030488508 
-0.016683683 
-0.028181132 
0.03070352 
0.027216416 
-0.027235579 
-0.024639454 
-0.019257596 
-0.00093189313 
0.019563176 
-0.026842099 
0.031884745 
-0.014691954 
-0.0048722466 
-0.01333555 
0.0052198134 
0.014427694 
-0.02866514 
0.020595748 
0.030196209 
-0.032872751 
0.023527794 
0.019515244 
0.0057333936 
-0.027100151 
0.0041710576 
0.0041193329 
0.014579459 
0.017912226 
-9.5781346e-05 
0.0046911077 
-0.02026912 
-0.032264773 
-0.009914387 
-0.0081664361 
-0.027237607 
0.010202171 
0.018941568 
0.0031441601 
0.027299266 
0.0075734672 
-0.042564876 
0.0023950052 
0.025824316 
0.027210943 
0.035596296 
0.03749989 
0.01496692 
0.0058310004 
0.022152251 
-0.02801914 
-0.038288865 
-0.043700416 
-0.02928617 
-0.037866943 
0.034626964 
0.0017921841 
0.034296516 
0.029717337 
-0.039111804 
0.0036280849 
0.0041294005 
0.0028415457 
0.041307852 
-0.038917385 
-0.038666766 
-0.043911573 
0.032808807 
0.027722437 
-0.042540614 
0.019576848 
0.0042685536 
0.00055755011 
-0.043470278 
-0.021012016 
0.030911932 
-0.036017887 
0.0085911974 
-0.010688409 
-0.019810146 
-0.027503887 
-0.014809011 
-0.025991393 
-0.006158371 
0.033776503 
0.011695835 
0.017319988 
0.02915268 
-0.0029113777 
-0.037204597 
-0.01218582 
0.013437284 
-0.026152855 
0.022515273 
0.016857991 
-0.010631115 
-0.043252006 
-0.0073514008 
0.0013414288 
0.042887889 
0.014053124 
-0.035646174 
-0.041120298 
0.028806007 
-0.039686091 
0.041563671 
-0.026209595 
-0.016600121 
-0.015971489 
-0.010692597 
-0.027409999 
0.018208265 
-0.024188137 
0.0071382062 
-0.010700737 
0.014343731 
-0.030724261 
-0.0010336303 
-0.01710587 
0.011332713 
0.026460476 
-0.0051705013 
-0.0059626121 
0.021823827 
0.0028953778 
0.031210657 
-0.00098513253 
0.025418021 
-0.028446715 
0.012871516 
-0.03801373 
0.027953291 
0.0083717657 
0.025975909 
-0.020365696 
0.0066158855 
0.020388585 
0.027360901 
-0.043968998 
0.035350099 
0.03033543 
-0.012341324 
0.032507341 
0.0053691184 
0.037511926 
-0.023022549 
0.01433645 
-0.023775911 
0.017759871 
-0.0061166165 
-0.0063254279 
0.037517935 
0.041758914 
-0.02999261 
0.003117871 
-0.024371244 
-0.017547712 
0.0040204562 
0.037232604 
-0.022015151 
-0.033960193 
0.022220824 
0.037160374 
0.0078621516 
-0.0066183382 
0.0045087961 
-0.0083786193 
-0.0029807752 
-0.026293302 
0.023952622 
-0.035482671 
0.039639458 
-0.032382451 
0.015649347 
-0.038512107 
0.021957202 
-0.014148083 
0.015185104 
-0.034251694 
-0.014981951 
-0.01322517 
-0.043374285 
0.017840382 
0.016560465 
-0.030062271 
0.0033209135 
0.021252269 
-0.04404445 
0.024988076 
0.013006575 
-0.010340266 
0.021685706 
-0.043988131 
0.021119839 
0.041466091 
-0.012535234 
0.016927565 
0.023734713 
-0.0043608579 
-0.022333194 
-0.036192324 
-0.014973382 
0.027938899 
-0.039366614 
-0.014991458 
-0.026219733 
-0.014365013 
0.038355496 
0.0096835382 
0.00015606977 
0.032616153 
0.032234926 
0.016705181 
0.0087648956 
0.040340576 
0.029413991 
-0.039180942 
0.016130021 
0.014433825 
-0.034173377 
0.036656503 
-0.020497514 
0.029629145 
-0.0019091336 
-0.013652491 
-0.029086869 
-0.004628235 
-0.010914693 
0.036790788 
0.00014230883 
-0.032954726 
-0.016027782 
0.0048559546 
0.03621326 
0.023916593 
-0.0028816143 
0.040545475 
0.0192573 
-0.0200957 
0.029890798 
-0.0079919407 
-0.0075061745 
0.033626895 
-0.0096743796 
0.024936646 
0.043105926 
-0.00048978062 
0.013773331 
0.013806791 
0.024861973 
-0.025874801 
0.034006342 
0.01575632 
0.042819012 
0.038927156 
0.026082139 
0.043849539 
0.021789409 
0.034796331 
-0.029105181 
-0.044138912 
-0.020052698 
-0.0055929553 
-0.033532083 
-0.031582862 
0.032628827 
0.012067232 
0.0070815082 
-0.010714703 
-0.011611636 
0.03447669 
0.0076844874 
0.010895534 
-0.013856293 
-0.00024217315 
-0.03508088 
0.033267554 
0.027562859 
0.033519339 
-0.041349657 
-0.008037027 
0.042792313 
-0.018823352 
-0.015685521 
0.030898038 
0.040729027 
0.030678807 
0.036405805 
0.011804368 
0.029222876 
0.0082282182 
0.0029475873 
-0.02417939 
-0.0082514808 
0.0048072007 
0.00048309771 
0.018952679 
-0.025608461 
0.022042565 
-0.021943225 
-0.024562886 
-0.030076569 
0.040249981 
-0.010734863 
0.025292713 
-0.02639465 
-0.032846026 
-0.031326257 
0.022816392 
-0.010320064 
-0.00063251355 
0.016349889 
0.017707782 
0.037501834 
0.01639073 
0.042462282 
-0.0042497483 
-0.03798274 
0.015967127 
-0.028107628 
-0.0091406815 
-0.015704896 
0.032967754 
0.0069700032 
0.0031614983 
-0.038766921 
0.019874256 
0.035268892 
-0.0069563556 
0.008041366 
0.035311483 
0.0021217566 
0.0098161008 
-0.010108961 
0.014992503 
-0.025173493 
-0.032900412 
-0.021673663 
0.038096815 
0.01542954 
0.023713777 
0.0009695777 
0.0071929549 
-0.023702262 
-0.034312241 
0.035667852 
0.01116628 
0.011591168 
-0.035180211 
0.037383337 
-0.0025324014 
-0.023222072 
-0.02054864 
0.025823062 
-0.0078973789 
-0.032518715 
0.037180413 
-0.025383469 
-0.030772336 
0.0047243349 
0.026920408 
0.032764286 
0.018564289 
0.019715121 
-0.037514407 
-0.0033221436 
0.015048448 
0.016995706 
0.033547122 
0.036728293 
0.016681006 
-0.026143273 
-0.041268114 
-0.0058297231 
-0.030974446 
0.02015675 
-0.0011499346 
-0.0072222389 
0.0038659724 
-0.011194359 
-0.020100867 
0.023941828 
-0.025030002 
0.012933461 
0.022008536 
-0.015713695 
-0.016291145 
-0.023789024 
0.042169265 
0.030092549 
-0.035412267 
0.015557824 
0.020867072 
0.018920863 
0.0026832211 
0.021689884 
0.026380956 
0.0062094158 
-0.038511198 
-0.0085290968 
-0.01014746 
0.039131593 
0.0051380536 
-0.0046060076 
-0.00035869601 
0.0029377302 
0.044137828 
-0.024641674 
0.020771453 
0.018607175 
0.02940792 
0.023208637 
0.018366875 
-0.0099237068 
0.01588038 
-0.031425614 
-0.025776852 
-0.039768077 
-0.032405827 
-0.0091492031 
-0.042504076 
-0.041560959 
0.03776465 
0.041372616 
-0.0056838002 
0.00036972269 
-0.026377574 
0.019851329 
-0.03402546 
0.011237893 
-0.016776985 
0.034594554 
-0.0090677859 
0.042588253 
0.040598921 
-0.03074825 
0.037598729 
0.0040915632 
0.018168664 
-0.015303054 
0.042314 
0.034304131 
0.0087607335 
-0.021846063 
-0.025324058 
-0.027328607 
0.00070379442 
-0.011913314 
-0.040730122 
-0.037433241 
0.031382963 
-0.0053789099 
-0.037217394 
-0.02380362 
-0.0010306247 
0.042939197 
0.013078657 
0.036736414 
0.040928509 
-0.020985851 
-0.0031780673 
0.022092598 
0.005803816 
-0.00015197099 
-0.043027494 
0.041094635 
0.04085499 
0.0078752758 
-0.043232612 
0.030184334 
-0.027482286 
-0.0092740953 
0.029796742 
0.020924497 
-0.031503711 
0.027825691 
0.03016247 
0.0391865 
0.028846625 
0.028897801 
-0.0048073931 
-0.03078543 
0.018793222 
-0.037120372 
0.037536513 
-0.027841067 
-0.03338531 
-0.038215823 
-0.011784686 
-0.018544966 
0.039575838 
-0.02247268 
-0.030888615 
0.022233179 
0.0017774221 
0.014187972 
0.006260124 
0.012171336 
-0.035510022 
0.004292177 
0.025734654 
0.038837489 
-0.015368829 
0.01203999 
-0.024169074 
-0.024111951 
-0.0035815549 
0.017837636 
0.030250015 
0.029890755 
0.027124468 
0.034637727 
-0.042758022 
0.0092657423 
0.032377966 
-0.032766826 
-0.019936921 
-0.042634439 
-0.01746612 
-0.024946362 
-0.01714622 
0.033546858 
-0.022235202 
0.04252601 
-0.012970571 
-0.034272943 
0.032899525 
0.040868476 
0.02771013 
-0.022340959 
0.0086980294 
-0.016218027 
0.0066831205 
-0.015298044 
-0.0053815413 
-0.033454619 
-0.032590888 
-0.012792885 
0.009194525 
-0.010159316 
0.032052144 
0.038202774 
-0.024766214 
0.020876044 
-0.014483362 
0.018861568 
-0.0054265251 
-0.014364115 
-0.029313769 
-0.043771401 
-0.0064002676 
0.0043707704 
-0.014971232 
-0.02194622 
-0.0089637442 
0.043836016 
-0.0099885603 
-0.031333923 
-0.030683789 
0.0024043934 
-0.02525723 
0.029428536 
0.018765921 
0.037621118 
-0.033613987 
-0.0023535644 
0.027300367 
0.0050608935 
0.039401159 
-0.02990984 
0.013086823 
-0.014735344 
-0.018773686 
-0.016640292 
-0.028388271 
0.034727439 
0.040133044 
-0.028764257 
-0.013589603 
-0.0081008766 
0.031415734 
0.02952647 
0.037929829 
-0.010724586 
0.032532755 
-0.041556027 
0.027798049 
-0.0074531063 
0.035290878 
0.024512902 
0.041572556 
0.016535172 
0.00068092445 
-0.0042314488 
0.019622846 
-0.024423409 
0.037009958 
0.027813548 
0.037490629 
0.039816529 
0.04199113 
-0.022307185 
-0.014329755 
-0.017926807 
-0.042474177 
0.015395664 
-0.020485884 
-0.021861482 
-0.041302942 
0.036444426 
0.0026536235 
0.023074709 
-0.023852592 
-0.041629516 
0.010914195 
0.037754484 
0.013090895 
0.036075387 
0.024304485 
-0.035244204 
-0.028157312 
-0.011988834 
-0.044078201 
-0.027287893 
-0.011202279 
0.01967633 
-0.014741658 
-0.0056225187 
-0.010370482 
-0.028528227 
0.011290166 
0.035835519 
-0.015128316 
-0.038077105 
0.038587172 
-0.019059831 
0.0023410888 
0.019827537 
0.0082131615 
0.024039051 
0.032270096 
0.038465515 
0.0011016133 
0.011483109 
0.034453429 
-0.021923589 
0.0095234802 
0.040665023 
-0.039857823 
-0.037797101 
0.021916114 
-0.0056771226 
0.037966359 
-0.0014578252 
0.016368097 
-0.025779769 
-0.033874344 
-0.041320562 
0.037883721 
-0.013418489 
0.00074069924 
-0.016786968 
-0.0075426972 
0.013547604 
0.03938261 
-0.020284664 
-0.011624696 
-0.019643551 
-0.024700463 
-0.022348287 
0.036114477 
0.036308073 
0.030320574 
0.025977906 
0.029937085 
0.042188726 
-0.036985971 
-0.024402326 
0.0086232815 
0.0053754775 
0.0010649244 
0.021582836 
-0.027223049 
0.003715408 
-0.041096404 
0.022356242 
0.032869715 
0.034431547 
-0.024985999 
0.0083771022 
0.029682623 
-0.013972475 
-0.018074404 
-0.0082458993 
-0.0076389634 
0.012583637 
0.0084027173 
0.003769967 
-0.010639613 
-0.0015116178 
0.032960322 
0.0097502153 
-0.0047861724 
0.0055311257 
-0.032233689 
0.010311052 
-0.0023357782 
-0.016901236 
3.8248263e-06 
-0.039901484 
-0.0072182929 
-0.023814803 
-0.00083184446 
0.037826501 
0.00061373715 
-0.03116026 
-0.005093154 
0.010369173 
-0.0090099555 
-0.028799392 
-0.01848246 
0.02566801 
0.00040001574 
-0.016574893 
-0.0018074755 
-0.020886913 
-0.010257647 
-0.038250528 
-0.038375687 
0.039307166 
-0.013717166 
-0.0078464737 
-0.0020383848 
-0.02132171 
0.01651283 
-0.030815015 
-0.032170944 
0.029446175 
0.020154744 
-0.016738707 
-0.040530775 
0.021619095 
0.04245127 
0.01217418 
-0.012741611 
-0.011993744 
0.018570881 
-0.034272291 
-0.034247119 
0.032829177 
-0.036905576 
0.042186145 
0.029251629 
0.004371529 
-0.0077046994 
0.0012466195 
-0.039289042 
0.025129179 
0.030349186 
-0.04078925 
-0.0071792044 
0.02684965 
0.024182765 
0.0099884393 
0.034865275 
-0.010561612 
0.026683079 
-0.032422598 
-0.013968909 
0.018739726 
0.023662711 
0.019932799 
0.0098580634 
0.034710106 
0.016070815 
-0.02449259 
-0.0084842555 
0.014780415 
-0.0080643939 
-0.034478925 
0.010555894 
0.031811751 
-0.041484348 
-0.019596314 
0.0024911209 
-0.022104815 
-0.028613139 
-0.026601834 
-0.027470272 
0.014370457 
-0.038190402 
0.018438883 
-0.041391551 
-0.036537252 
0.0078047956 
-0.04282517 
-0.012131191 
0.025171394 
-0.015136487 
-0.034138914 
-0.039925799 
0.036139846 
-0.0082279844 
-0.021176934 
-0.037616335 
-0.04258775 
0.021332094 
0.01458636 
0.037566427 
0.042285211 
-0.034754813 
0.01199444 
0.026415421 
-0.0014974538 
0.036398701 
0.036173832 
0.007453728 
-0.029821884 
0.00056289748 
-0.033393823 
0.040908515 
-0.03270077 
-0.0086984746 
-0.027100028 
-0.036393065 
-0.03732726 
0.0013682026 
0.00063372002 
-0.0054703052 
0.036498215 
-0.011399548 
-0.034757972 
0.041796029 
-0.017634388 
-0.037200198 
-0.035387643 
-0.0051437593 
-0.008767358 
0.00023567464 
0.03937573 
-0.015835412 
0.017366851 
-0.00092372193 
0.0016862322 
0.018568942 
-0.01953843 
0.036520138 
-0.020242432 
0.013023155 
-0.032098006 
0.028435472 
-0.03123058 
0.033481378 
0.02319672 
0.040613052 
-0.02918124 
-0.015187032 
-0.028809128 
0.038770005 
-0.0010925622 
-0.03660826 
0.014241873 
-0.0080962274 
0.041715734 
-0.025790263 
0.028361177 
-0.039713886 
0.034931704 
0.01755216 
0.028846357 
0.035382472 
-0.01143047 
0.0083672032 
-0.00037466176 
0.039640319 
-0.029620649 
0.019380333 
-0.0024398784 
-0.016674304 
-0.044026364 
0.0099258935 
0.019652832 
-0.007688615 
-0.033793911 
-0.039616466 
0.029078644 
-0.036687329 
-0.010123327 
0.0042244261 
0.0066127037 
0.029238237 
0.039078999 
0.030355919 
0.038828678 
-0.012408335 
0.011014905 
-0.040265884 
0.039059918 
-0.019378752 
0.0026873567 
-0.041606061 
0.022359109 
-0.032779239 
-0.040051479 
0.036475446 
-0.040093876 
0.034321662 
0.0081544295 
-0.041111186 
0.029445585 
-0.027083296 
0.0017673227 
0.041321732 
0.020337408 
0.042103231 
-0.0099304086 
0.0020724607 
-0.037537765 
-0.02710012 
0.023705985 
-0.039635703 
-0.044088695 
-0.02706233 
-0.027864048 
0.0049167406 
-0.028914742 
0.025173938 
-0.017592434 
0.0075940085 
0.027278246 
0.028273122 
0.036554974 
-0.00011160485 
0.028509608 
-0.021306535 
-0.0019707812 
0.016988246 
-0.039824501 
0.01864888 
-0.018270094 
0.010706385 
-0.032175053 
-0.013973342 
-0.0063385512 
-0.035467654 
-0.021551935 
-0.038501091 
-0.042348318 
0.028743623 
-0.03846233 
-0.032044616 
-0.043983825 
-0.040736169 
0.02773281 
0.0064022643 
0.041815728 
0.0047174701 
-0.017943347 
-0.0099475151 
-0.034127206 
0.038571738 
-0.016461985 
-0.019275922 
-0.035682049 
0.02287655 
0.0013793135 
-0.030902376 
-0.00027521627 
0.024914524 
-0.034580804 
-0.0006302218 
-0.0034379659 
-0.00835218 
0.036799978 
0.003446548 
-0.0088664722 
0.01214315 
0.044036381 
-0.035055909 
-0.027298724 
0.0066811708 
-0.025530154 
0.0012329691 
-0.0056079514 
-0.03954063 
0.034483775 
0.035630122 
0.015699143 
-0.017593179 
-0.019535676 
-0.02271707 
0.0063307304 
-0.02717565 
0.01874971 
-0.016590962 
-0.033501111 
-0.039463639 
0.013808493 
-0.038854361 
0.0058467686 
0.010369431 
0.0074322647 
-0.010536844 
0.015899161 
0.043416932 
-0.011394145 
-0.033584394 
-0.035985157 
0.024610894 
0.031523883 
0.012174802 
0.022666274 
-0.010841399 
0.034775816 
0.014692028 
-0.038912483 
0.013583981 
0.025099374 
-0.021991417 
-0.024951497 
0.03595861 
-0.019619992 
-0.029812234 
0.008872075 
0.036016874 
0.011235744 
-0.035016149 
0.0055182972 
0.013611203 
-0.011528941 
0.030444702 
-0.036055963 
-0.038661577 
0.0039147679 
0.0070708557 
-0.019115731 
0.018289004 
-0.014623629 
0.025376765 
-0.010419586 
0.0050171711 
-0.029533174 
-0.0058599212 
0.023030629 
0.011724215 
0.009484442 
0.0020592634 
-0.021924308 
0.0077766837 
0.015429703 
0.0037462225 
0.017503053 
0.038757995 
-0.0045537036 
-0.026671391 
0.027323291 
0.04039038 
0.0061795814 
-0.0050709322 
0.029838787 
0.027609963 
-0.038919918 
-0.0091965031 
0.043008856 
-0.010588945 
-0.025641266 
-0.010820484 
0.010363372 
-0.042012773 
-0.0072021219 
0.016451616 
0.043068182 
-0.004299379 
-0.027363764 
0.037070718 
0.028042922 
-0.032013245 
0.035200842 
-0.020921286 
0.033859529 
0.012874392 
-0.017232982 
0.023886152 
-0.036652427 
-0.038626082 
-0.0098790526 
0.036726069 
0.036216423 
-0.013466305 
-0.015053334 
0.027651809 
0.029090924 
-0.036739998 
-0.0015711766 
-0.00021984322 
0.027058713 
-0.037167415 
-0.030100908 
-0.012074503 
-0.0177441 
-0.024018314 
-0.026883736 
0.0067053633 
0.019782159 
-0.032232273 
0.040636495 
-0.029880019 
-0.032429051 
0.036801517 
0.011666448 
0.040979423 
-0.0042287353 
0.012934451 
0.039415997 
0.035894256 
-0.017553775 
0.023845112 
0.019603152 
0.039293263 
0.025168628 
-0.014467227 
-0.0076437681 
0.029674953 
-0.041494135 
0.0028540108 
0.043053739 
-0.023912461 
0.032804418 
-0.024156449 
0.029028252 
-0.026390534 
0.023422694 
-0.005620148 
-0.040464859 
-0.027916439 
-0.026091317 
-0.03014102 
-0.023671728 
0.010063603 
-0.037150703 
-0.037843734 
0.033354264 
-0.03197293 
0.020407757 
-0.00055515039 
-0.028838437 
0.011103708 
-0.030720605 
0.0098307682 
-0.00029702991 
0.030084867 
-0.0098435469 
-0.0077388226 
0.012845754 
0.03921051 
0.033215761 
0.022979748 
-0.035991665 
-0.040950194 
-0.013832406 
0.025236495 
-0.016729066 
0.033070676 
0.0013800405 
-0.0070144762 
-0.038474362 
-0.02760087 
0.023299705 
-0.039338991 
-0.0061220112 
0.019219827 
0.00084616122 
0.023761539 
-0.011123022 
0.0018987787 
0.0054670097 
0.034334093 
-0.0062480806 
0.0067705223 
-0.021159273 
0.025851522 
0.014019095 
0.026217958 
0.039393254 
-0.039605297 
0.043485411 
0.017158171 
0.031540215 
-0.022637315 
0.003116633 
0.0097468644 
0.0069742971 
-0.028458498 
-0.0050901747 
0.03849525 
-0.026384385 
0.026443874 
0.041260261 
0.010404555 
-0.02367954 
0.003533755 
-0.013705675 
0.029134836 
0.01217527 
-0.00053662685 
-0.011252979 
0.0014225299 
-0.02864485 
0.035121057 
-0.015250442 
0.0290775 
-0.015823256 
-0.012183816 
-0.026505452 
0.024571745 
-0.024896512 
-0.030807097 
0.009860645 
0.022817887 
-0.034872096 
0.0064377571 
-0.041436005 
-0.035158239 
-0.030480271 
0.027313938 
0.016354399 
0.033675704 
-0.012107398 
-0.012233275 
0.009339246 
0.029302891 
0.032354776 
0.036652278 
0.0003378228 
-0.02317751 
-0.015853543 
-0.039229624 
0.0095291547 
-0.006005499 
0.028327212 
-0.0021528346 
-0.0077045546 
-0.014869263 
6.6671048e-05 
0.030250015 
-0.01477673 
0.02501063 
0.033417162 
-0.020137792 
-0.0020256012 
0.014407631 
0.020627616 
0.029601844 
0.03205204 
0.034906007 
-0.037140276 
0.010685796 
-0.029353665 
0.012691896 
-0.011686057 
-0.031307407 
-0.037933771 
0.025874872 
-0.0071185343 
0.026457157 
0.027290074 
-0.012958775 
0.0062912651 
0.019627592 
7.7355267e-05 
-0.038890459 
-0.030569121 
-0.011141722 
0.043787919 
0.033626873 
-0.032199908 
0.036073718 
-0.027525807 
0.0076515866 
0.038634963 
0.042421076 
0.041000627 
0.014325492 
-0.0075423261 
-0.026790023 
0.044059273 
-0.021030506 
0.012679906 
-0.009354814 
0.03259198 
-0.0075847176 
-0.038131867 
0.037292816 
0.025220754 
-0.0098763714 
0.023915155 
-0.01769314 
0.026219618 
-0.0033023979 
0.0065839961 
0.0041638822 
0.002523216 
0.0047129816 
0.026817854 
0.014895897 
-0.022887764 
0.010589285 
0.023586035 
0.0064041661 
0.01850912 
-0.0033605499 
-0.0010330535 
0.028232129 
0.033939101 
0.033356126 
0.02275718 
-0.022093983 
0.032368638 
-0.022528691 
0.0095668389 
-0.042248294 
0.027050164 
0.008386475 
-0.038607754 
0.00070100219 
-0.01537226 
-0.0086785099 
-0.0038156726 
-0.028256904 
-0.0085963421 
0.029579116 
0.020146104 
0.01610861 
-0.037780847 
0.039210424 
-0.02038691 
0.020049345 
-0.042860899 
0.030178476 
0.007579763 
-0.0019459015 
-0.022307491 
-0.026652087 
-0.027422179 
0.027886668 
-0.025613254 

