0.027362645 
0.0013852984 
-0.0088628232 
0.035525616 
0.017173765 
0.028326839 
0.0082171392 
0.0083718495 
0.024734052 
0.0070026251 
0.019152734 
0.034627434 
0.034019966 
-0.013166259 
-0.020248158 
-0.020972028 
-0.014235906 
-0.001056524 
-0.0068981219 
-0.020397333 
-0.034426436 
-0.01013501 
-0.035117213 
0.021073518 
-0.012479153 
0.02814438 
0.00074142101 
0.0094011128 
0.021606671 
0.031074639 
-0.037108891 
-0.014555324 
0.026971759 
-0.039471269 
-0.03520577 
0.024378512 
-0.021315398 
0.0021630079 
-0.043797836 
0.019240374 
0.013833739 
0.021775838 
0.022435093 
-0.042072479 
0.0087375371 
-0.0093226377 
0.0077254963 
0.033869904 
-0.043511063 
-0.036268413 
0.0062599871 
0.039063431 
0.030215519 
-0.040261816 
-0.013141566 
-0.038364358 
0.041916031 
0.031080782 
-0.036683053 
0.019123169 
0.035643931 
0.032794479 
-0.033597272 
-0.038762368 
-0.036015388 
0.0044918689 
-0.027746273 
0.041814551 
-0.03636672 
0.022882842 
-0.0030478439 
-0.041346792 
-0.030562831 
-0.022741536 
0.019987626 
0.03886601 
0.0089530917 
-0.036712058 
0.034187749 
-0.020273834 
-0.018077986 
-0.0029572651 
-0.039260194 
-0.025426334 
0.021933841 
-0.043014865 
0.013053484 
0.022462936 
-0.016358145 
-0.035604369 
-0.026713379 
-0.018390069 
0.025154155 
0.01318768 
-0.0091316523 
-0.018505557 
0.035836186 
-0.025428407 
0.042418279 
-0.041963998 
-0.0079195825 
0.021998657 
-0.012032077 
-0.03479711 
-0.038354103 
0.014505686 
-0.043730266 
0.014543244 
-0.012194476 
-0.024009304 
-0.0012943192 
-0.011222059 
-0.029734215 
0.0081808353 
-0.017198574 
-0.036310252 
0.01288937 
0.00070725044 
0.01198081 
0.042189158 
-0.0019052852 
0.037125252 
-0.01332074 
-0.029111251 
0.016313918 
-0.033323288 
0.016541015 
-0.033802271 
-0.038952649 
0.037960365 
-0.011251235 
0.0064230952 
-0.031684406 
0.010061111 
0.029700479 
-0.043059282 
0.03040424 
0.032486074 
0.039819226 
-0.028899722 
0.021890599 
0.0059563136 
0.018376121 
0.037680563 
-0.0059270849 
0.033195447 
4.7520571e-05 
0.0032832606 
0.037264045 
0.029083522 
0.016116822 
-0.039723881 
0.032236807 
-0.033281993 
0.013014488 
0.040475056 
-0.037499331 
-0.036575861 
-0.015209283 
0.0013316981 
-0.02663202 
0.04125452 
0.036208298 
-0.0040645339 
0.0070739216 
-0.028119624 
0.027085513 
-0.037913654 
0.010956895 
0.0052450802 
-0.012098845 
0.017158408 
-0.040500455 
-0.024616215 
0.014011235 
-0.021488843 
-0.034074936 
-0.03291389 
0.010439279 
0.024935108 
0.025273705 
-0.00044566867 
-0.034521047 
-0.001814996 
-2.8027653e-06 
0.038061012 
0.035294164 
-0.0082391873 
-0.011577196 
-0.01264113 
-0.043665804 
-0.027718898 
-0.030588323 
-0.015273346 
0.040797174 
0.0048315409 
0.021994317 
0.0030485815 
-0.035783958 
-0.0043443232 
-0.042715881 
-0.035249487 
0.036408603 
0.014020196 
0.032625802 
0.036685508 
-0.031215748 
-0.042895161 
-0.038060483 
0.0099346815 
-0.016874602 
0.016412625 
-0.012662412 
-0.029028313 
-0.019580308 
0.0088530406 
-0.026652519 
-0.0070991809 
0.024263397 
-0.032109883 
-0.040686343 
-0.0062965546 
0.041560657 
-0.014975362 
-0.034853779 
-0.033611197 
0.021951759 
0.026239764 
-0.019539308 
-0.019039523 
-0.011196294 
0.010328813 
-0.017422691 
-0.042584293 
-0.0072754151 
-0.041421164 
-0.034394737 
-0.023094213 
-0.034138225 
-0.0066824327 
-0.015354848 
-0.0036600085 
0.0039196094 
0.0039554872 
-0.0018205647 
0.03414011 
0.027369969 
-0.0033705782 
0.038433425 
0.040737327 
0.034500971 
0.029415224 
0.030674323 
0.031681165 
-0.03108873 
-0.016098097 
0.0053536613 
-0.035646629 
-0.04319698 
-0.023733923 
-0.020980623 
0.0049181632 
0.024401471 
0.035291743 
-0.0078051826 
-0.039744973 
0.03617074 
0.0026336247 
0.041965906 
0.023629498 
0.031966355 
0.019367477 
-0.030437103 
-0.012797314 
0.0031907272 
-0.02544242 
0.04132507 
-0.0039748983 
0.0092999442 
0.037496176 
-0.033803523 
-0.025871115 
0.040269271 
-0.0077219955 
-0.025984745 
0.015160206 
-0.010881228 
-0.0050427965 
-0.022639446 
-0.043873649 
-0.033313699 
0.038393576 
0.028325059 
0.019198611 
0.023282599 
-0.022849843 
-0.0016176434 
-0.0087254457 
0.038839549 
0.025374331 
0.030154293 
-0.0098430067 
0.0077541084 
-0.022813816 
-0.0018697764 
0.0040579145 
0.027863428 
-0.00071673613 
0.014364225 
-0.018620567 
0.023970935 
0.0035274804 
0.0079073701 
0.025847482 
-0.030303223 
-0.0059065805 
-0.013770555 
-0.019779917 
0.044183463 
-0.026910286 
0.043856293 
-0.019034041 
0.020880029 
0.007730654 
0.023723824 
-0.00040422514 
0.0047835461 
0.01179812 
-6.9737231e-05 
0.037767958 
0.039418578 
-0.033886068 
-0.036566209 
-0.011593104 
-0.036437169 
0.0090293251 
0.0083397124 
0.043242965 
0.029075636 
-0.0030477308 
0.035942983 
-0.034230471 
0.019972043 
-0.020563236 
-0.023766113 
-0.026397105 
0.022734942 
0.03112874 
0.041693415 
0.020585053 
-0.042673998 
0.0049194326 
-0.015580784 
0.031549349 
0.031105543 
-0.025974097 
0.01116834 
0.0039869337 
-0.036794353 
0.013702862 
0.033823811 
-0.031541146 
-0.021243479 
0.019023085 
0.020008467 
-0.00031391761 
-0.0076379939 
-0.0027572862 
-0.0067120884 
-0.021790052 
0.039289016 
0.0043358412 
0.039140355 
-0.033693094 
-0.021080295 
-0.032474685 
0.021796206 
0.0142102 
0.0015685108 
-0.027890459 
-0.035850074 
0.036148224 
0.010299088 
-0.038379136 
0.039453149 
0.023147754 
0.010144008 
0.00069435878 
0.020641666 
-0.017715471 
-0.0083717229 
-0.024970457 
-0.0061539481 
0.0043968749 
-0.0071995691 
0.021627823 
-0.0053997384 
0.040141415 
0.0047189193 
0.041045487 
0.014515375 
0.033978168 
0.038923498 
0.011794337 
0.031518217 
-0.01006115 
-0.0023590224 
0.018394208 
-0.038909618 
-0.0056712721 
-0.02704417 
0.0097877886 
0.030573223 
0.00092618226 
-0.0082289036 
-0.0061897943 
-0.012302067 
-0.0039673988 
0.027664991 
-0.015387061 
0.018366506 
-0.022530155 
0.039587565 
-0.034011263 
0.0083535267 
-0.021242158 
-0.03829702 
-0.021832073 
0.015143052 
-0.02739056 
0.017310295 
0.015246638 
0.031559322 
-0.0057331515 
0.042909142 
-0.0436786 
0.027697496 
0.035609186 
0.018054144 
-0.0044000652 
0.025287166 
0.011949627 
-0.036295157 
0.026140213 
0.020799881 
-0.030630859 
0.0407652 
0.017078144 
-0.017528063 
-0.043123957 
0.026496796 
0.0077885427 
0.021713234 
0.012363398 
0.039983794 
0.0092770271 
0.0026808451 
0.036520351 
-0.0011898029 
0.037910551 
0.012492004 
-0.0050621261 
0.012331388 
-0.0091873305 
0.002355777 
-0.0056014215 
0.015224796 
-0.021321472 
0.01637549 
-0.038337715 
0.02834898 
-0.020058889 
0.032741647 
0.033230245 
-0.01893867 
-0.040197909 
-0.036694594 
0.040404771 
0.029296469 
-0.028459577 
0.0037062094 
0.0035216273 
-0.035956588 
0.023904538 
0.0092213405 
0.04013449 
0.031586602 
-0.044167757 
-0.023095218 
-0.017510276 
-0.0054859258 
-0.043152731 
0.040135264 
0.013423292 
-0.032031812 
-0.029467143 
0.0033747666 
0.0037245906 
-0.042875744 
-0.0079034874 
0.011865808 
0.0076719592 
0.010383445 
-0.0046130884 
-0.034698837 
0.0054207114 
0.016573031 
-0.040402554 
0.00036860054 
-0.04249369 
-0.020253154 
-0.023402767 
-0.0015627656 
-0.005488086 
0.0062815398 
0.0079325372 
-0.029541794 
0.023363853 
0.030950122 
-0.0039828876 
-0.013039052 
-0.0078644725 
-0.0085870093 
-0.043923356 
-0.024535725 
-0.034125324 
0.023853989 
0.021992747 
-0.034029666 
0.024470327 
-0.037295289 
-0.039320279 
0.028894925 
0.03066963 
-0.025381627 
-0.018791091 
0.031135119 
0.017858995 
1.1142572e-05 
-0.027832167 
-0.033871688 
-0.029791957 
-0.006288826 
0.022928961 
-0.021386217 
0.04034242 
-0.043977719 
-0.019303743 
0.0098703811 
-0.020764343 
0.038247 
-0.0034101806 
0.019696919 
-0.038772203 
0.030380506 
-0.020479048 
0.030139742 
0.036086585 
-0.00015075137 
0.041110188 
-0.041573107 
0.0097835688 
-0.020425314 
-0.032890249 
0.016479522 
-0.039151091 
-0.030244347 
-0.027722565 
0.034552228 
0.001972209 
-0.030016718 
-0.014351636 
0.025193214 
-0.026076613 
0.0098192934 
0.010161115 
-0.011459235 
0.0059166853 
0.00059212104 
0.032749835 
-0.028282214 
-0.02244892 
0.0080483882 
0.019616829 
0.024036974 
0.0011583008 
0.032459106 
0.017996699 
0.032873951 
0.013705797 
0.018519867 
-0.037561141 
-0.0037113591 
0.0074157063 
-0.040275838 
-0.006072897 
0.0031959692 
0.026997654 
-0.035468441 
0.016725639 
-0.037557963 
-0.035687074 
0.004760792 
0.016789164 
-0.018579926 
-0.019793183 
0.035290673 
0.014529262 
-0.017645968 
0.013122516 
0.018048298 
0.007287506 
0.000735473 
0.041934658 
-0.0079217423 
0.039975442 
0.021899233 
-0.0041996199 
0.038238611 
0.031826481 
-0.017273411 
-0.036751162 
0.021435887 
-0.0087313699 
-0.022307482 
-0.0022205911 
0.017259941 
-0.019061184 
0.02202237 
-0.010173298 
0.043627452 
-0.036011513 
-0.037887882 
0.043209717 
-0.015346829 
0.039538141 
0.0076482357 
-0.0045978073 
-0.023585105 
0.038396712 
-0.013960893 
0.015015736 
-0.0098469285 
0.012035654 
-0.044172086 
0.039447635 
-0.037768267 
0.039617453 
-0.025564041 
-0.0038671866 
-0.013704909 
0.026609544 
0.012394903 
0.0069711464 
-0.037655711 
-0.0085460162 
-0.04237403 
0.034461148 
-0.011517514 
-0.0066597685 
0.012098316 
0.014965518 
-0.00037108193 
-0.0060562887 
0.019922199 
-0.041135121 
-0.038940623 
0.041274946 
-0.02401421 
-0.0013538121 
0.013941287 
-0.013788451 
0.010829685 
0.022197248 
-0.017189877 
0.017788714 
0.018533191 
0.043469299 
0.038737085 
-0.0046787108 
0.011917384 
-0.03732327 
-0.035123695 
-0.0038557122 
-0.0051632393 
-0.032757305 
0.011151023 
-0.029929293 
0.026011797 
-0.011605035 
-0.035464257 
-0.028594995 
0.0014332141 
-0.0023558033 
-0.02082854 
-0.033018854 
0.0010890482 
0.017874788 
0.014414406 
0.025052655 
-0.028647361 
-0.041424777 
0.0011817924 
0.010328581 
-0.017768465 
-4.7420472e-05 
0.017432736 
-0.025180891 
0.025767688 
-0.028277528 
-0.0077238735 
-0.0092336368 
0.03661136 
0.035002477 
0.0022524539 
-0.039855909 
0.040934026 
0.002724346 
-0.01554483 
0.027961774 
0.028418323 
0.036827631 
-0.028163325 
0.007066072 
0.026589066 
-0.0054968894 
0.021757267 
0.01644039 
-0.037301291 
0.018678483 
-0.00038482179 
0.041139737 
-0.022226859 
0.015967613 
0.040164772 
-0.026363498 
-0.013063284 
-0.003520658 
0.022273576 
-0.040736325 
-0.033995178 
0.030914808 
0.040979166 
-0.013384322 
-0.034329496 
-0.01614204 
-0.022843111 
-0.0099210571 
-0.038001586 
-0.040715918 
-0.030250428 
0.040007811 
0.010897789 
-0.013176616 
0.025474746 
-0.039549861 
-0.029849272 
0.0067658122 
-0.026196303 
-0.008803715 
0.0098855328 
0.021800773 
0.016776932 
-0.019630311 
0.0092349015 
-0.039958715 
0.0033154185 
0.021183359 
0.02217597 
0.028018929 
0.0068491418 
0.0086346613 
0.038068343 
0.037374403 
-0.025392383 
0.02714677 
-0.0087973988 
-0.0026871751 
0.0095583256 
-0.0017640168 
-0.032025505 
-0.013552031 
0.0019934089 
-0.010757931 
-0.024584815 
-0.0058572395 
-0.025357943 
-0.024392715 
0.035120264 
-0.021235721 
0.034603152 
-0.010066137 
-0.015693706 
0.0039686682 
0.02764299 
-0.021640882 
0.0083928332 
0.0018381083 
0.026965853 
0.029076993 
0.02240853 
-0.0050552324 
0.013949816 
0.0086478852 
0.039575644 
0.0028034451 
0.00248001 
0.034840576 
-0.0084426515 
-0.024773946 
-0.015685577 
0.0078429701 
0.03997403 
0.030491479 
-0.015905648 
0.0041022319 
0.0079453709 
-0.026680855 
-0.015770091 
-0.014801298 
-0.022890536 
0.0026792276 
-0.010129107 
0.024851384 
0.012335134 
0.026316186 
-0.014757195 
0.0070587648 
0.020618828 
-0.035704568 
0.0081726955 
0.0089657884 
-0.028480748 
-0.028274694 
0.019766439 
0.012579775 
-0.012267428 
-0.042870201 
0.015200819 
-0.016911631 
-0.023368455 
0.038670864 
0.0073810248 
0.001602007 
-0.00017149026 
-0.0069412435 
0.019553982 
0.02233923 
0.039608818 
0.018281195 
-0.024082046 
-0.0089993291 
0.038786516 
-0.012382718 
-0.007154617 
0.024445109 
-0.0083926413 
-0.036960196 
-0.030199528 
-0.0021661003 
0.012492884 
0.037129596 
0.041990541 
-0.029817233 
-0.038221609 
0.032130443 
0.0093771676 
0.040246762 
0.0083052469 
0.018555803 
-0.023667919 
0.011801813 
0.025342626 
-0.031318426 
-0.027615525 
-0.016356774 
-0.031073691 
0.028961902 
-0.01821105 
-0.0094407648 
0.0080572758 
-0.024161918 
-0.031811591 
-0.0046727657 
-0.0021881117 
-0.036073085 
0.043421827 
-0.017009465 
0.0049833539 
0.0050967974 
0.020345084 
-4.7467889e-05 
0.0033021318 
0.035576817 
-0.035245627 
-0.024067534 
-0.039188895 
-0.019795772 
0.032995302 
0.0080734659 
0.036198638 
0.033435225 
-0.011604542 
0.016893256 
0.0011316692 
-0.00077690865 
-0.022839917 
0.040276997 
-0.0083984444 
0.027591208 
0.040798295 
0.016741835 
0.026393263 
-0.022198476 
0.037770588 
0.0010440617 
-0.0044912761 
0.016020328 
0.02533545 
0.037253745 
-0.00038284351 
-0.0077262339 
0.025965672 
-0.0084977159 
-0.0089914296 
0.040014848 
0.037538107 
-0.02853987 
0.019011216 
-0.024617037 
0.018938117 
-0.020647323 
0.0096858563 
-0.016901108 
0.017497802 
-0.017666215 
-0.0027332574 
0.0058388296 
0.030223342 
-0.025085503 
-0.017712513 
0.0019175288 
0.0216628 
0.014221053 
-0.020783933 
-0.011054146 
-0.039122932 
0.00011748961 
-0.021879766 
-0.029886778 
-0.035296991 
0.038255222 
-0.038329557 
0.016525421 
-0.040686976 
0.032743208 
0.0086334236 
0.00047940458 
-0.031355005 
0.0047081402 
-0.012117306 
-0.035812061 
0.013981658 
-0.0045704595 
-0.036648717 
-0.031408861 
-0.040340632 
0.0035452927 
0.024391513 
-0.0011765424 
0.022244431 
-0.0002315021 
0.03780036 
-0.043345638 
0.013350957 
0.021411156 
-0.00014314651 
-0.01781694 
0.032742694 
0.034322664 
-0.039892908 
-0.028767191 
0.023969129 
-0.0045677884 
0.039912358 
0.0099269738 
-0.011505952 
-0.021569485 
-0.012208072 
0.014413247 
-0.017950991 
-0.039729793 
-0.016052477 
-0.032482479 
0.038420882 
0.0011733419 
0.021292856 
0.037960123 
0.041980807 
0.027165202 
-0.018859273 
-0.036006644 
0.011312656 
0.0068227001 
-0.02918951 
0.044175085 
0.0050348835 
0.028541703 
-0.032947022 
-0.0071750898 
-0.034721773 
-0.038053744 
0.027029775 
0.0096644936 
-0.012569473 
-0.0057329778 
0.0058703288 
0.013994386 
0.027531169 
0.029418016 
0.017573807 
0.013874078 
0.0054261116 
-0.041311633 
0.028929058 
-0.016652206 
-0.034195341 
0.037621818 
-0.026789583 
-0.0008217924 
0.023394182 
0.0078396769 
0.036648359 
0.010998278 
0.022421191 
0.035939522 
0.018584257 
-0.039543882 
0.021566231 
0.043368075 
-0.0061087511 
-0.037473254 
-0.021080937 
-0.011712786 
-0.019411828 
0.038248669 
-0.036176816 
-0.032987867 
0.02343381 
0.038933076 
-0.016984893 
-0.042890716 
0.011897001 
-0.013802603 
-0.0035868681 
-0.0082285106 
-0.021855785 
0.0011861545 
0.031004801 
0.037945006 
-0.0066771987 
-0.0063861851 
-0.043256111 
0.025984116 
-0.0082972525 
-0.031089619 
0.011564505 
0.02293396 
-0.0066736401 
0.035466705 
0.041145217 
-0.019625517 
-0.033211242 
0.0017193649 
-0.026889468 
-0.036051728 
-0.039830215 
0.030302092 
0.0078046322 
0.029557247 
-0.032994907 
-0.01915649 
-0.008481171 
-0.028824938 
0.011452258 
-0.0082879066 
-0.041634481 
0.020840393 
-0.035076667 
0.030313531 
-0.03949536 
0.003914204 
-0.025244853 
0.039060954 
-0.015622654 
0.038643371 
0.034539275 
-0.03056239 
-0.029179016 
-0.035213858 
0.031558212 
-0.0036034554 
-0.0020392567 
0.019927956 
-0.0073427525 
0.027817205 
-0.041962016 
0.02401658 
0.0086894417 
-0.03014775 
0.018802263 
0.0068406127 
0.038144115 
-0.005839006 
-0.0042633722 
-0.031678192 
0.002720953 
-0.02303008 
0.022390718 
0.018762581 
0.0078206686 
-0.033749513 
0.024498314 
-0.0085243182 
0.016515069 
0.0035211162 
-0.022458594 
-0.03656346 
-0.021269053 
-0.012213166 
-0.043334424 
-0.043839328 
-0.041973721 
0.03133652 
-0.034617689 
-0.029543087 
0.015553061 
-0.010062565 
-0.022334859 
0.021470215 
-0.018923888 
-0.03014159 
0.013150923 
0.017004615 
-0.025460884 
-0.0013458463 
-0.032455496 
-0.011749722 
0.0036569766 
0.026585942 
-0.011852562 
0.017673407 
-0.034053329 
-0.027637107 
-0.002931084 
-0.025986018 
0.00021001774 
0.030887011 
-0.016787155 
-0.039591949 
-0.031627636 
-0.00083504757 
0.023321284 
-0.0098338239 
-0.031556737 
0.030805247 
-0.020561846 
-0.019608544 
0.0062985145 
0.018445157 
-0.041311588 
0.042453349 
-0.038153861 
0.01886918 
0.028313357 
-0.018498564 
0.0069668107 
0.035002809 
-0.0094711399 
0.029213782 
0.03268927 
-0.025667926 
0.033418894 
-0.030606579 
0.019190665 
-0.030586451 
0.0082060331 
0.013593544 
-0.031865656 
-0.033931881 
0.0037773163 
0.011149506 
-0.027686069 
0.0093665365 
0.0038749655 
0.023574745 
0.043979373 
-0.010040346 
0.0055486062 
0.038669966 
-0.023714146 
0.010419318 
0.013300081 
0.041218679 
-0.028848805 
-0.037281699 
-0.022858547 
0.03975318 
0.023017246 
0.035666302 
0.028401628 
0.011133127 
0.0040911315 
-0.0017198627 
-0.00034258276 
-0.0098680602 
0.0051165535 
0.025988288 
-0.0077992189 
0.0093682436 
-0.012120261 
-0.019460388 
-0.009942513 
-0.018799055 
-0.013616922 
0.0295783 
0.040792812 
0.039501727 
0.018769914 
-0.038766596 
0.017287889 
0.038099539 
-0.01680232 
0.023974791 
0.0064816955 
0.035683185 
-0.040750168 
0.022186438 
-0.0067990688 
0.0054795854 
0.030302176 
0.016927412 
0.038133074 
-0.0031938856 
-0.012235127 
0.012467517 
0.021215955 
-0.02844448 
0.011496491 
0.022720207 
0.040616132 
0.0062444508 
0.013090895 
0.019104665 
-0.0043113907 
-0.039312437 
-0.0071839117 
0.023229182 
0.004998669 
-0.0089756297 
0.030598242 
-0.030211704 
-0.01022605 
-0.029461289 
-0.0088858046 
0.02787984 
-0.042588726 
-0.021805109 
-0.010952591 
-0.028362494 
-0.028410235 
-0.011025397 
0.010330941 
0.03484166 
-0.014304063 
-0.022759343 
0.010426282 
0.031350523 
0.016069302 
-0.011281758 
-0.038810659 
-0.037980214 
-0.015448735 
-0.032142784 
-0.035010371 
0.0072723385 
-0.0052652108 
-0.00028832132 
0.030755788 
0.0086155897 
-0.040017843 
-0.019173335 
0.031302504 
-0.034703884 
0.029872937 
0.038940359 
0.021828337 
0.001501002 
0.010281802 
-0.0089111505 
0.01892719 
0.016533239 
0.026960934 
0.028649935 
-0.043089412 
0.0092984429 
0.033664759 
0.029456953 
-0.036987145 
-0.019406307 
0.030153651 
-0.032762121 
0.0077297846 
0.025989763 
0.036971893 
0.027297402 
0.029938851 
-0.041164506 
0.039863311 
0.036015797 
0.034105066 
-0.011028937 
0.037163708 
-0.040177591 
-0.017606292 
-0.041905064 
0.012288393 
-0.019198593 
-0.014094885 
-0.0069801765 
-0.029942228 
-0.032409843 
0.040586218 
-0.024144245 
0.0025443421 
-0.035503898 
-0.015060041 
-0.0038920534 
0.034807391 
-0.0030282668 
0.021005752 
-0.041772228 
-0.028100261 
-0.038714606 
-0.013433684 
-0.026021291 
0.031957779 
0.0071110479 
-0.042993367 
0.012424917 
0.033579685 
-0.0187981 
-0.016713377 
0.0057253228 
0.023183048 
-0.010381216 
0.043022454 
-0.042895857 
-0.0003855383 
-0.015398633 
0.02304733 
0.0139387 
-0.019916095 
-0.014901618 
0.032514133 
0.0077780532 
0.010457349 
-0.027192205 
-0.0095015224 
0.023768773 
-0.0052623209 
-0.022175737 
0.0094928397 
-0.041605234 
0.01663791 
-0.011695269 
-0.027625537 
0.0022047069 
0.01157372 
-0.0010564792 
0.023446998 
0.022037407 
-0.0011385786 
0.0085795121 
-0.00683968 
0.022461325 
0.040483043 
0.03812601 
-0.026464904 
-0.025777288 
-0.0066303499 
0.020687422 
-0.03701622 
-0.021147631 
0.011246686 
0.02537119 
0.024811843 
0.015518121 
0.0035252571 
-0.013121543 
-0.034808021 
-0.0027203287 
0.0014706879 
-0.014228242 
0.014162848 
0.037223507 
0.036205214 
-0.026069744 
0.029654475 
-0.016856059 
0.030442337 
0.03260212 
0.0037412334 
-0.024711443 
0.0057193958 
-0.040219158 
-0.03945297 
-0.034684625 
-0.00092832645 
0.021800879 
0.022402199 
-0.038206421 
0.037620749 
0.036041576 
-0.03587563 
-0.029480107 
0.035867412 
-0.004090515 
-0.019375267 
0.0055308468 
0.0030845224 
-0.027260944 
-0.036254611 
-0.041082624 
0.042147011 
0.028082388 
-0.040846311 
-0.021410465 
-0.042622808 
-0.0093861269 
-0.017874194 
0.023024123 
-0.012736864 
-0.013126286 
-0.0034545506 
-0.028460171 
0.037753113 
0.0099224634 
-0.015092971 
0.013992595 
-0.038197625 
0.0036034079 
-0.010629206 
0.0036456918 
-0.0035517069 
0.025434516 
-0.0095340889 
-0.025599251 
-0.03871607 
-0.039224751 
-0.040529959 
-0.010645525 
-0.00034891267 
0.043684829 
-0.038033888 
-0.018320808 
0.027780822 
0.033517588 
-0.040292595 
-0.0015499583 
0.030640543 
0.025740286 
-0.00033880534 
0.01081093 
-0.0066190227 
-0.041829601 
-0.043839395 
-0.022143211 
-0.023451807 
0.017113827 
0.02534537 
0.028847547 
0.0018567847 
-0.019395281 
0.032872472 
0.013920425 
-0.022217531 
-0.03311149 
0.0065133106 
-0.016179984 
-0.0032273263 
0.02688979 
-0.00044654059 
0.039770544 
0.026268788 
0.0022450625 
-0.0082641225 
0.02053464 
0.038020391 
-0.02846631 
-0.01114192 
-0.020126231 
-0.011892431 
-0.01748489 
-0.019864803 
0.03712374 
0.020544397 
-0.011893443 
-0.003675753 
-0.034891963 
0.028101748 
0.042795334 
-0.041191086 
0.021502158 
-0.042101298 
-0.016853811 
-0.015556931 
-0.020490162 
0.042579189 
0.021458641 
-0.025470156 
-0.0031606238 
-0.01770719 
-0.0034807289 
-0.021212379 
0.016827878 
0.031512883 
0.0060123797 
-0.0011341795 
0.0074338769 
-0.035056449 
-0.016535453 
0.022160148 
0.035990942 
0.022731101 
-0.032375902 

