0.022798115 
-0.03104775 
-0.032747541 
-0.024778232 
-0.010701525 
0.043440834 
0.018340454 
0.031029252 
0.029095333 
-0.010047735 
0.011362068 
-0.040227722 
-0.016676944 
-0.020663166 
-0.020937476 
-0.037099838 
0.028270025 
0.03332863 
-0.042313997 
-0.0032139791 
-0.029979475 
-0.040372852 
-0.02258883 
-0.033895545 
-0.0052545369 
-0.01590877 
-0.034696769 
-0.01216274 
0.011775582 
-0.031163219 
0.031707536 
0.032146741 
-0.043917578 
-0.030524148 
-0.041111954 
-0.023121422 
0.0041441047 
-0.027498631 
0.03863338 
0.036877058 
-0.033454642 
0.018095659 
-0.022594558 
0.043577563 
-0.04232914 
-0.037761655 
0.011296978 
-0.00026121299 
0.041039009 
0.027108958 
0.026924966 
0.033023771 
0.0038830366 
0.03085319 
-0.026479447 
0.005528423 
-0.0020930571 
0.014411878 
0.022923829 
-0.012089705 
0.0080434727 
0.041111547 
0.021244567 
-0.023172189 
0.022126088 
-0.021543369 
0.040968914 
0.013155627 
-0.019419024 
-0.034635242 
0.011712672 
0.030422643 
-0.026561772 
-0.042106051 
0.040765334 
0.01152838 
0.042754304 
0.0077450573 
0.012111408 
0.010176003 
0.0047020605 
0.0058234613 
0.0076917154 
-0.01990084 
-0.0021139884 
0.033909589 
-0.036271933 
-0.033902545 
0.029008284 
-0.020312971 
0.027810639 
0.017603358 
0.0050078831 
-0.016321806 
-0.0025798059 
0.021903964 
0.015318841 
-0.041452814 
-0.010188782 
0.013139617 
0.04094784 
-0.0085246377 
-0.043525405 
0.00733539 
0.024926841 
0.022796635 
-0.018889785 
0.0022199745 
-0.028706014 
-0.016879201 
0.0028347969 
0.017098086 
0.038620349 
-0.019843884 
0.031953249 
0.035622973 
-0.01611837 
-0.025247576 
-0.022108762 
-0.0099704666 
-0.011147486 
-0.03988849 
0.0016656697 
-0.017365573 
0.0074306526 
-0.0009037733 
-0.016559647 
0.0086113699 
-0.038946681 
0.021339577 
0.0028982016 
0.016093114 
-0.039782353 
0.0036312039 
-0.002215544 
-0.040750366 
0.02921758 
0.0039988928 
-0.036938261 
-0.0089267101 
0.010445443 
-0.043724786 
-0.018433617 
-0.0064127562 
-0.043903962 
-0.033115976 
-0.021004163 
-0.034637358 
-0.037108991 
0.043762479 
0.042805213 
0.043506477 
-0.020303514 
0.036270801 
0.034211896 
0.020726744 
0.021370338 
0.019133573 
0.016218649 
0.011179994 
-0.006432652 
-0.027466992 
0.035535257 
0.043057553 
0.037268803 
-0.014902775 
-0.026881892 
-0.0047550127 
0.01556932 
0.026490748 
-0.011668758 
-0.0030301134 
0.014762698 
-0.012883562 
0.024696436 
-0.025552073 
0.036812726 
0.036907472 
-0.032353066 
-0.022469476 
-0.040621843 
0.028940096 
0.01943926 
0.029903574 
0.041457653 
-0.0069436245 
0.033546798 
-0.029937079 
-0.016576711 
-0.042757057 
0.017894551 
-0.011266759 
0.042625114 
-0.0020295104 
-0.017236114 
-0.0081351344 
-0.037121229 
-0.033278517 
-0.0019810863 
0.033418018 
0.016639691 
-0.03627656 
0.038730934 
0.0072926059 
-0.038180191 
-0.0039474815 
0.035881191 
0.0056595313 
0.035308149 
0.024701761 
-0.029573547 
-0.0039924341 
-0.02509091 
0.034984592 
-0.0068006995 
-0.00028185442 
0.011564416 
0.026459238 
0.041520033 
-0.022260921 
-0.0029801931 
-0.010251246 
0.03939113 
0.016850479 
0.043550782 
-0.0082411841 
0.023263521 
-0.019399304 
-0.022469731 
0.033489525 
0.0055882242 
0.018346617 
0.039071884 
0.023302328 
0.034624822 
0.040799543 
0.0027094891 
0.0034570848 
0.030912748 
0.020281775 
-0.036496453 
-0.041790936 
-0.0033839704 
-0.014683804 
-0.017066117 
-0.0051775137 
0.0083634937 
0.0084505435 
-0.010897062 
0.028603453 
0.01713223 
0.019387245 
-0.0052807499 
-0.011114401 
0.018641146 
0.039463047 
-0.0027860068 
-0.022925079 
0.031327978 
0.0017622703 
0.022742577 
0.011535519 
0.028229073 
0.037337199 
0.020183809 
-0.0042616283 
-0.0057576019 
0.017783631 
-0.032013956 
0.014912709 
0.0041053821 
0.030371914 
-0.041151199 
0.0045328354 
-0.029406348 
0.042504031 
-0.034945797 
-0.037301213 
0.022494905 
0.018360769 
-0.0015582638 
0.011942325 
0.014578242 
-0.018877547 
0.0018510263 
-0.038699396 
-0.014034413 
-0.034337014 
-0.010719877 
0.017480996 
0.029475398 
0.0056419983 
-0.010118436 
0.025220847 
-0.010431058 
0.0013115836 
0.003316293 
-0.0060826857 
0.0097631328 
-0.029969398 
-0.030178368 
0.03965424 
0.0124504 
-0.02578808 
0.028962923 
0.028404009 
0.018789787 
0.012717369 
-0.02964755 
0.021982584 
-0.00011024562 
-0.012368886 
-0.032880861 
0.034965653 
0.04233611 
0.024055535 
0.015146592 
0.019428622 
-0.010196782 
-0.00021158771 
0.032066192 
-0.006725491 
-0.037125196 
0.0097478284 
-0.035686888 
0.00072487839 
0.025239181 
-0.02739539 
0.00014131838 
0.019941887 
-0.0052064583 
0.035925362 
-0.003212675 
0.017560653 
0.013166428 
0.025912736 
-0.042564221 
0.0034754395 
0.027267635 
-0.033593517 
0.034679882 
9.3639756e-05 
-0.0043710154 
-0.0016861794 
-0.0064538126 
-0.0098248832 
0.0067871124 
-0.0096085062 
-0.01613941 
0.034318652 
-0.016592672 
0.030008977 
-0.0051503209 
0.00924813 
-0.030591816 
-0.027273942 
0.033768795 
0.032332797 
0.035209373 
0.027921675 
-0.0021457251 
0.0087745786 
-0.01706964 
0.0056443745 
-0.02185509 
0.00059843785 
0.0096192332 
-0.0036203773 
0.039523959 
-0.036280613 
0.036966778 
0.032521445 
0.031214792 
0.0074984352 
-0.02837467 
-0.034542065 
0.031262182 
0.021439621 
-0.0082395747 
-0.031773992 
-0.032902472 
0.003777174 
-0.037256412 
0.031726521 
0.022001423 
-0.017158438 
-0.0037415575 
0.0034708087 
-0.018051796 
0.043225985 
0.013383305 
0.00051692053 
-0.028909143 
0.016654463 
0.02085495 
0.021815255 
-0.035527471 
-0.032572422 
-0.037313692 
0.041440789 
-0.021268306 
-0.013901961 
0.042843927 
0.0096059991 
-0.026630769 
-0.0021881221 
-0.0014163001 
-0.019403234 
-0.0063299956 
-0.043118931 
-0.0046030548 
-0.024339177 
0.036304519 
0.035165153 
0.0029173996 
-4.7259786e-05 
0.035606168 
-0.03790459 
-0.043675408 
0.043392383 
0.0032978274 
0.028197279 
0.034385547 
-0.003751483 
0.042102374 
-0.019932255 
0.029320635 
0.04170106 
-0.0057673035 
-0.00077221193 
-0.0055120517 
0.033877499 
-0.026420236 
0.00058600452 
0.010926412 
0.035463601 
0.022890428 
-0.016523585 
-0.014461358 
0.008895277 
0.032460507 
-0.018520212 
-0.026110899 
0.019758811 
0.0014998693 
0.022418842 
0.012695542 
-0.033207789 
0.0064994181 
-0.0036526381 
-0.033444792 
-0.040521398 
0.0079926383 
0.038641922 
-0.038215548 
0.034802508 
-0.00058815401 
-0.014264116 
-0.020912815 
-0.037468601 
-0.012504725 
-0.035065453 
0.030329973 
0.010420486 
0.010639913 
0.036234714 
0.012001131 
-0.024785258 
-0.015528503 
-0.0065032295 
0.043115281 
-0.032293327 
0.021462571 
-0.035303805 
-0.00048736244 
-0.033888415 
0.0027941463 
-0.026176669 
-0.032596234 
0.035418458 
-0.0060506989 
-0.0035737287 
0.021780817 
-0.0045522125 
0.024089763 
-0.012596523 
-0.0034155436 
-0.021491429 
0.014981982 
-0.018938022 
0.016551832 
-0.0021689506 
-0.033365849 
-0.0012993715 
0.00089155335 
0.04368791 
0.033715859 
-0.026069479 
0.03440053 
0.02627698 
0.015485357 
-0.033729948 
-0.043653142 
0.0060145343 
-0.0048299627 
-0.042303607 
0.033172932 
0.003097472 
0.012097362 
0.036581114 
0.021241384 
-0.0027852112 
-0.040578559 
0.0092527084 
0.004293357 
0.030663518 
0.019483492 
-0.01135018 
0.0067041358 
-0.0062215989 
0.0063845101 
0.0013688401 
0.043606482 
-0.036339376 
0.026631165 
-0.02243416 
-0.004774835 
-0.0058971052 
0.031832762 
-0.014323817 
0.0070611197 
-0.043086544 
0.031157251 
-0.006004585 
-0.028447542 
-0.025850894 
0.042471547 
-0.039078474 
0.018062817 
0.025521534 
-0.012754566 
0.01164343 
0.004851982 
-0.037046369 
-0.024627024 
0.0134319 
-0.026160773 
0.032299057 
0.039760303 
-0.040194597 
0.017378883 
-0.024767211 
-0.021093452 
-0.036616717 
0.01346772 
0.033014834 
-0.0095175589 
0.041842312 
0.014036444 
-0.029764622 
0.041832875 
0.029925706 
-0.0093304981 
0.039233536 
0.022568494 
-0.0028132943 
-0.035741862 
-0.0051888935 
0.013404594 
-0.022680867 
0.034380816 
0.0052646734 
-0.031795222 
0.031003442 
-0.010909366 
-0.0078415181 
0.039275009 
-0.015152569 
0.022291858 
-0.0070777358 
-0.0050562755 
-0.037727375 
0.032226432 
0.021143304 
0.038049869 
0.016528677 
0.0086984085 
0.0051455451 
-0.024914989 
-0.0027447317 
0.025652863 
0.023353253 
-0.021711072 
-0.02124179 
0.025334986 
-0.0024844066 
0.038638055 
0.018739063 
-0.00077757507 
0.012484607 
0.0064892289 
0.024818297 
-0.040149465 
-0.04397371 
0.013777141 
0.0043034828 
-0.028713454 
-0.026946625 
-0.025949357 
0.022988113 
-0.007249603 
-0.04176398 
-0.041362789 
-0.005692095 
-0.0010212734 
0.0033976629 
0.029603118 
-0.032444108 
-0.0058480147 
0.019762537 
0.01425508 
-0.036090359 
-0.001521243 
0.0051499549 
0.010686412 
-0.041190602 
0.023120234 
0.022567676 
-0.0096394187 
0.040009264 
-0.0095681986 
-0.010712122 
-0.001077147 
0.019698236 
0.036152944 
0.0010605464 
0.0045738393 
0.024450261 
-0.0049004639 
-0.012955665 
-0.013512345 
0.0077134105 
0.024253752 
0.021664217 
0.018439583 
-0.010342591 
0.018079123 
0.031728305 
-0.003482681 
-0.0082815951 
-0.0028263361 
0.006234915 
-0.033436418 
0.0016424416 
-0.027904268 
0.034785632 
0.034300115 
-0.039122481 
-0.031367667 
0.043506142 
0.021571752 
-0.0056982222 
-0.035239752 
-0.033672392 
0.036734913 
-0.041852597 
0.02325614 
0.035383269 
0.029696627 
-0.0072116787 
-0.02143647 
0.035245977 
0.0056745517 
-0.00029260185 
-0.019930433 
0.015904324 
0.034491368 
-0.01166722 
0.025342846 
-0.021081157 
-0.017370902 
0.016172409 
0.025944846 
-0.039405063 
-0.013472648 
0.021805303 
0.027889553 
-0.032262839 
0.030599561 
-0.00089199853 
0.0040116739 
-0.0096244728 
0.01101335 
0.027604667 
0.024979863 
0.027186476 
-0.019219905 
-0.037181854 
0.012884386 
-0.02703632 
0.038499027 
0.029740117 
0.019647948 
-0.024136554 
-0.023646323 
0.017085221 
0.032588158 
-0.043629102 
-0.014335041 
-0.031908765 
-0.037218552 
-0.0097667519 
0.018229613 
0.019967929 
0.03448661 
-0.043556191 
0.041002169 
0.0027807332 
0.019091759 
0.0019092838 
0.0067154625 
-0.024080886 
-0.0188538 
0.032925829 
0.0090539278 
-0.0022244975 
-0.029373704 
-0.038620669 
0.025028463 
0.042562973 
0.037685756 
0.0064580138 
0.040573705 
0.041252483 
-0.03203259 
0.0066437707 
0.0048621814 
-0.024618179 
0.021403039 
0.025529504 
-0.0054291752 
0.015603827 
-0.0039314525 
0.039013289 
-0.034649692 
0.018074729 
-0.042878751 
0.043796379 
-0.018264774 
-0.017066143 
0.011196125 
-0.03287793 
-0.0064923321 
-0.016500492 
0.024952678 
0.016511165 
-0.010878262 
0.04108547 
0.020491049 
-0.01728218 
0.031498808 
0.0036588099 
-0.038000133 
0.039928708 
0.030903697 
-0.022831993 
-0.031443264 
0.026684059 
0.042353161 
-0.017671568 
0.014194063 
0.041569799 
-0.034599129 
-0.042066086 
-0.039607015 
-0.024185069 
0.030150743 
-0.02657925 
-0.01487799 
-0.0081611257 
0.033040505 
0.033811439 
0.035547648 
0.0050099692 
0.021657579 
0.027318886 
0.0098236399 
-0.026376715 
0.039928406 
-0.043891266 
0.0078581003 
-0.036959998 
0.026078356 
0.0016006425 
0.025876826 
-0.043494496 
-0.015278406 
0.039655957 
0.004318872 
0.039520063 
-0.040246721 
-0.007981699 
0.038812462 
0.032893546 
0.018698907 
0.0015245832 
0.028354397 
0.011663497 
0.0023620673 
0.037993345 
0.024338378 
0.029065119 
-0.012820968 
0.0040479517 
-0.01943019 
0.032005098 
0.027085751 
0.022417413 
0.0088569121 
-0.0067288419 
-0.0097120302 
-0.037603501 
0.038539592 
-0.022306057 
0.0065482557 
0.002341015 
0.020674061 
-0.040623572 
0.015687563 
-0.0030130201 
-0.019981017 
-0.02656424 
-0.022252189 
0.017152846 
0.028763238 
-0.014087212 
0.040383253 
0.02906218 
-0.015180933 
-0.022685001 
-0.028823985 
-0.041781519 
0.037825715 
-0.0060361899 
-0.0014352924 
0.013913828 
0.015387924 
-0.02000206 
-0.012933016 
0.018323589 
-0.017840344 
-0.03969961 
0.0031130188 
-0.027005229 
0.039260257 
0.00074703182 
-0.037324719 
0.031099327 
-0.00075651222 
-0.012165266 
0.018066199 
-0.026638025 
0.0067135608 
-0.0078920079 
0.012621569 
0.011083104 
-0.0050426861 
0.032084018 
-0.042268451 
-0.0012853841 
0.0054254374 
0.012392996 
-0.0392735 
0.017201483 
-0.0071802819 
0.022008799 
-0.0038815693 
0.02163069 
0.040196486 
0.022437939 
-0.015460936 
0.035462599 
0.036673848 
-0.032509606 
-0.040300637 
-0.010126175 
0.0012262256 
-0.025952524 
0.0080689033 
-0.022736836 
-0.0007446215 
0.0035411413 
-0.036696684 
0.017103296 
0.042203419 
0.03072964 
-0.039544828 
0.0095996615 
-0.034977816 
-0.00025005461 
0.0060263146 
-0.0071628648 
0.015017838 
0.02852782 
-0.0039267559 
-0.033979774 
0.029263468 
-0.015599131 
-0.021679064 
-0.0091489479 
-0.023876032 
0.038072851 
-0.030063031 
0.020838765 
0.037442744 
0.039241418 
-0.039866839 
-0.021225361 
0.0073114666 
-0.0047119963 
-0.042257223 
-0.018811472 
0.026074478 
0.029237064 
0.0017664798 
0.02129264 
0.0090922918 
-0.0025014023 
-0.022878926 
-0.041147456 
-0.041141063 
0.023030223 
-0.036584716 
0.0050876881 
0.0084928581 
-0.018543227 
0.037636615 
0.011933485 
0.010948429 
-0.0050049433 
-0.010054866 
-0.01665611 
-0.0065302853 
0.024763586 
-0.03457433 
0.029514104 
0.028648771 
0.0012049731 
-0.036088623 
0.026455076 
-0.041074272 
-0.028073547 
-0.0047271112 
0.0068971892 
-0.0093913712 
0.034202624 
0.032088708 
0.026149938 
-0.0092858858 
-0.031229442 
0.013222188 
0.020901233 
-0.010305339 
0.017183017 
0.027236193 
-0.024784787 
-0.020469267 
-0.00016425944 
0.038592838 
-0.010111743 
0.017102405 
-0.025218304 
0.0017665852 
-0.019519003 
-0.038045961 
-0.041703086 
-0.031969 
-0.031112256 
0.0034209385 
0.030662153 
0.0034929041 
-0.03754098 
0.037155174 
-0.04082251 
-0.011676157 
0.017595988 
0.0048756157 
-0.032918602 
0.029618945 
0.025325451 
-0.02655255 
0.026413288 
-0.021734888 
-0.025605749 
-0.035744701 
0.011368917 
-0.029144101 
0.035064727 
-0.016013058 
0.014729228 
0.039047375 
0.042509589 
-0.033393651 
0.035502654 
0.0056086178 
-0.023570064 
-0.039578866 
-0.043299656 
-0.013177475 
0.0035605973 
0.029904738 
-0.0019105983 
0.028690703 
0.02348054 
0.00013836283 
-0.030345693 
-0.015941851 
-0.033675939 
0.0055820076 
0.041619286 
-0.013616611 
0.01495996 
0.002025235 
-0.0079972353 
0.022568014 
0.040770236 
0.023066131 
-0.011203852 
-0.00023132561 
-0.02679782 
-0.030655667 
-0.030770862 
-0.031390898 
0.0053219297 
0.035891201 
-0.0293318 
-0.014038072 
-0.020713557 
0.019285211 
-0.0070719752 
0.0055208895 
-0.00062378391 
0.018109873 
-0.0083927838 
-0.026431061 
0.038455795 
0.0047864858 
0.022233663 
-0.031840485 
-0.01261747 
-0.026137242 
0.024984809 
-0.025765589 
-0.04039086 
-0.033955704 
0.0040004891 
-4.8139602e-05 
0.038253453 
0.024894368 
-0.032451026 
-0.0074791424 
0.037757199 
-0.0045781485 
0.022005633 
-0.035488263 
-0.037937161 
-0.026687099 
0.013676283 
0.03707245 
-0.029098786 
0.022697611 
-0.036376346 
-0.0076250732 
0.022094773 
0.0373469 
0.017404003 
0.0075029712 
-0.020854365 
-0.035285432 
-0.030017333 
0.00021383729 
-0.0042470773 
-0.026798666 
0.037708886 
0.02017216 
0.04272788 
0.033939648 
-0.016859276 
0.035703331 
-0.039758381 
-0.025432972 
0.0069510583 
0.034381714 
-0.028819272 
0.0086040525 
0.018609898 
0.027569992 
0.00074394455 
0.026937647 
0.043231595 
0.020562325 
-0.010783861 
-0.0058574188 
-0.034951381 
-0.0040678345 
-0.038848467 
0.0060141236 
0.0023814549 
0.01223072 
0.021553587 
0.039422855 
-0.021884119 
0.03413222 
-0.026176266 
-0.01414217 
-0.018805059 
0.022186054 
0.016549207 
-0.012614915 
0.029635124 
0.01526876 
0.040537406 
0.012057539 
-0.041487053 
0.026391281 
-0.034445751 
-0.013193636 
-0.020264741 
0.034809902 
0.012198141 
-0.013625536 
0.036928799 
-0.015942391 
0.025826097 
0.011824172 
0.027321288 
0.023946896 
-0.022170153 
-0.037582763 
0.025203567 
0.038119532 
-0.038309608 
-0.014701919 
-0.031341527 
0.022284698 
0.0049490198 
-0.039388962 
-0.0016551542 
0.025794156 
0.011087456 
-0.018338572 
0.012783266 
0.0088850614 
-0.018702069 
0.00071157049 
0.035879418 
0.040709641 
-0.035245407 
0.043610066 
0.03897858 
0.006159314 
-0.018031601 
-0.006688186 
-0.01665929 
0.030973444 
-0.04049046 
0.031517107 
-0.01848642 
0.016302776 
-0.01048706 
-0.031863552 
0.013887149 
-0.030817967 
0.016591396 
-0.0084084412 
-0.015333042 
-0.009763225 
-0.01063685 
-0.031389855 
0.023281487 
-0.024959996 
-0.0026095379 
0.026287073 
-0.036602132 
0.013182133 
0.0092974734 
-0.038098589 
0.0019749117 
-0.024507863 
0.0072956407 
0.0053961556 
0.012325677 
-0.036313772 
-0.018128149 
0.035850853 
0.036701433 
-0.012402722 
0.040213481 
-0.024475705 
0.040415239 
-0.035816792 
-0.01428433 
0.023427537 
0.035925768 
-0.021958802 
0.012012115 
-0.020041248 
-0.038523372 
0.025971277 
0.028413218 
0.042183433 
-0.021183612 
0.020671006 
-0.03380727 
0.024571132 
0.02098855 
-0.010906653 
-0.028647998 
0.040663972 
0.0073429239 
-0.034688961 
-0.010812708 
0.027862191 
-0.006636959 
0.036411442 
0.033080172 
-0.033302754 
-0.024937509 
-0.043874737 
0.0046175611 
0.037651155 
-0.0091183363 
0.022662997 
-0.00070894684 
0.0052706213 
-0.00051102525 
-0.034825359 
0.022085406 
-0.0018903572 
0.005564169 
0.00088659057 
-0.020050369 
0.0089000445 
0.018412951 
-0.017045466 
-0.036391165 
0.0018485028 
0.004018839 
0.043161176 
-0.013230572 
0.0027210375 
0.017611783 
0.023314746 
0.00064632192 
-0.023642184 
0.033286668 
0.018426849 
0.038742311 
0.039803278 
0.012225468 
0.014891967 
-0.039113957 
-0.036773589 
0.029355407 
-0.01424981 
-0.033402342 
0.00085579703 
-0.028071113 
0.018042987 
-0.039640237 
-0.017675998 
0.027485635 
0.0298621 
0.04251615 
-0.01604924 
0.0076119369 
0.022750905 
0.012421403 
0.011392425 
0.018427577 
-0.042609084 
0.022306783 
0.020074669 
-0.040605206 
0.040698178 
0.027955879 
0.014683466 
0.036558904 
-0.0032438717 
-0.035702709 
-0.037163835 
-0.020147953 
-0.038880512 
-0.015619596 
0.020712648 
-0.021500461 
0.019996451 
-0.035167325 
-0.033713393 
0.017330721 
-0.032430597 
-0.013334235 
-0.0023944336 
-0.028228208 
-0.0051688473 
0.014893885 
-0.037075855 
-0.010548437 
0.030406196 
0.039386541 
-0.023192223 
-0.033201799 
-0.027125774 
-0.010775779 
0.0029430618 
-0.037822381 
0.02088676 
-0.0035053955 
-0.00046049908 
0.03087905 
0.0053618536 
0.0019201419 
-0.035446808 
-0.0062434576 
-0.012149679 
0.03710857 
-0.038459532 
-0.032001756 
-0.013254061 
0.0051784567 
0.035543922 
0.00966678 
0.0061798133 
-0.00098399457 
-0.027460545 
0.016916901 
0.025633791 
0.0020776079 
0.040463712 
-0.036490832 
-0.033559289 
0.0043539852 
-0.032787189 
-0.029456219 
-0.024875451 
-0.043705646 
0.0019911383 
0.015240985 
0.03122751 
0.029086847 
0.005572693 
0.031482819 
0.03407076 
-0.00064733077 
0.017362909 
-0.018123543 
0.034796406 
0.033345364 
-0.038249131 
-0.040841401 
-0.00096989115 
-0.039718077 
-0.03321223 
-0.030863743 
0.0396121 
-0.02927793 
-0.027028393 
0.037758265 
0.0033194909 
0.018997565 
0.020156868 
-0.024842052 
-0.029832732 
0.023606034 
-0.027017398 
0.033290625 
-0.022554524 
0.022520209 
-0.017040825 
0.035558902 
-0.0044454336 
0.0090413261 
0.037404828 
-0.041863449 
-0.033380534 
0.038537364 
0.0057897386 
0.030882882 
0.0099545643 
-0.021436453 
-0.0054844902 
-0.017095489 
0.016523603 
-0.019456675 
-0.019540276 
0.024170985 
0.0090234447 
0.015831737 
-0.010961871 
-0.032740269 
-0.031665947 
-0.015222793 
0.0058769933 
0.0021817158 
-0.030360188 
-0.02386467 
-0.036125127 
0.012226569 
-0.00266975 
-0.0081965923 
-0.0081950519 
-0.021130767 
0.012398048 
0.034121413 
0.025595106 
-0.00024804473 
0.037934091 
0.031468153 
-0.014056216 
0.0031786573 
-0.038746543 
-0.019797344 
0.037156884 
0.043972913 
-0.033272073 
-0.015562402 
-0.0096826348 
0.022260685 
-0.035605256 
-0.026115425 
0.017285919 
0.016699566 
-0.011197142 
0.0020323263 
-0.023885962 
0.032911092 
0.016368376 
-0.030159686 
-0.024359737 
-0.041130885 
0.036576804 
0.0079760542 
-0.028677745 
0.031139283 
-0.042626403 
-0.014101289 
-0.0010700163 
0.0019228552 
-0.029768867 
-0.0080730235 
0.012910233 
0.022637131 
-0.0051188217 
0.0017065101 
0.036812954 
0.01997217 
-0.023365002 
0.036764979 
0.0097023044 
0.036868151 
-0.013669189 
-0.026741482 
0.014996976 
0.037327763 
-0.018233167 
0.019328408 
-0.042278368 
-0.014216672 
0.020892592 
0.014511449 
-0.012147185 
-0.016418207 
-0.019041587 
0.022916837 
-0.037365578 
-0.021716872 
-0.014042039 
0.0080572758 
-0.0036906572 
-0.026592856 
0.0098424638 
-0.038664106 
0.0088453377 
-0.010601397 
0.026732935 
0.032293178 
0.021341573 
0.0039049371 
0.0074354783 
0.036690138 
0.043516953 
0.015810695 
-0.026210068 
0.041704673 
-0.0075016567 
-0.032002967 
0.030583123 
0.022703933 
-0.014959499 
-0.026557861 
0.015209775 
0.014729518 
0.027828136 
-0.031295378 
-0.016710164 
-0.024396548 
-0.016109502 
-0.0070956196 
-0.034992699 
0.025249023 
0.0034995161 
0.042807277 
-0.019398542 
-0.043510541 
0.042478189 
0.035550725 
-0.010066031 
-0.03788146 
-0.0043107215 
-0.010462201 
-0.011178611 
0.033598777 
0.022320006 
0.015090331 
-0.014426687 
-0.042433117 
0.041949283 
-0.0033794423 
0.035649214 
-0.0020038798 
-0.038075939 
0.019949995 
0.0041520018 
-0.014476881 
-0.011285475 
-0.012519021 

