-0.060002439 
0.0054612383 
0.054054715 
0.033545434 
-0.014010198 
0.0017634556 
0.062202573 
0.058241859 
-0.033729654 
-0.021089632 
-0.040182687 
-0.057465754 
-0.023477044 
-0.019221779 
-0.038905088 
0.012782574 
0.060077965 
-0.042766452 
0.048395932 
-0.039770089 
-0.028304782 
-0.018765185 
0.058744542 
-0.035266239 
-0.030640516 
0.049862616 
0.028668828 
-0.0077200197 
0.018381864 
-0.041644357 
-0.036637321 
0.010182045 
-0.031164221 
-0.016007565 
-0.0041033775 
-0.01435313 
-0.02600956 
-0.030988447 
-0.015766323 
-0.0054316521 
0.046024226 
0.012111321 
0.022213355 
0.0044441745 
0.042775139 
0.025025591 
0.056603856 
-0.013797693 
0.0042625293 
0.022878066 
0.052594736 
0.0030643716 
0.0093961507 
-0.024583824 
0.04340291 
0.056031197 
-0.029637232 
0.012016602 
0.015364192 
0.056400664 
0.0077687055 
0.016025923 
0.024013385 
0.035592183 
-0.057311535 
0.050089508 
-0.026494358 
-0.014767669 
-0.011456914 
0.055082895 
-0.057991229 
0.029693112 
-0.049004909 
-0.05895735 
0.0018117651 
-0.038636275 
-0.036133982 
-0.021841928 
-0.025774807 
0.0063269362 
-0.022929572 
-0.030673083 
-0.044651493 
-0.043098543 
-0.022001036 
0.043341532 
0.017658852 
0.032973304 
-0.010654416 
-0.024656229 
0.029773772 
-0.021844655 
0.042748027 
0.034738101 
-0.062239144 
-0.011444319 
-0.019250657 
-0.042195849 
0.054106668 
-0.028120134 
0.03433226 
-0.041978829 
0.018433079 
-0.010393921 
0.059036277 
-0.022698827 
0.052625589 
-0.028451659 
0.016127631 
-0.025827222 
-0.030600403 
0.046101846 
-0.051081218 
0.025837243 
-0.041984886 
-0.014407694 
-0.040899448 
-0.052876055 
-0.0075620562 
0.027236648 
0.036074519 
-0.020294551 
-0.017228365 
-0.045313142 
0.061893977 
0.047013715 
-0.046656888 
-0.0084506869 
0.05398307 
0.048303165 
0.04620038 
-0.025082819 
-0.01002204 
-0.055407032 
0.059559472 
-0.01846619 
0.031735919 
-0.062056366 
0.035984948 
-0.053336848 
0.040317245 
0.048801541 
-0.026074681 
0.026558951 
0.012182228 
-0.038528826 
0.0097734332 
-0.022926301 
0.057027832 
-0.044735096 
0.020772003 
0.027231686 
-0.028625883 
-0.053626046 
0.020815656 
0.0011377484 
0.027138479 
0.046869911 
0.039369233 
-0.05176454 
-0.032457281 
-0.021794904 
-0.04527241 
0.060835078 
-0.033426385 
0.011544339 
0.038987502 
0.044568889 
0.026988506 
0.0065757856 
0.011029065 
0.019716263 
0.061238632 
-0.033759199 
0.048721515 
0.057442985 
0.055546641 
0.047420032 
0.054417923 
0.014853768 
-0.058363676 
0.021001697 
-0.021724582 
-0.044796407 
0.048032954 
0.029479109 
-0.019485556 
0.005183816 
0.0040768459 
-0.018677995 
-0.048145756 
-0.059292577 
-0.037178271 
-0.032853715 
-0.043815255 
0.028372608 
0.044796221 
-0.007118728 
-0.026493572 
-0.059717216 
0.035478882 
0.0098788887 
0.01673723 
0.0078162849 
-0.03435383 
0.021969274 
-0.021695763 
0.051958635 
-0.044962693 
-0.035401665 
-0.042216972 
0.0091629252 
-0.036385953 
0.055788904 
0.047613956 
0.043360583 
-0.050810277 
0.047947459 
0.030275643 
-0.0033394583 
-0.0080446079 
0.03333763 
-0.018729672 
0.017781809 
0.0066080168 
0.02095627 
0.05081141 
-0.036467478 
0.027472541 
0.035769612 
0.046761781 
0.0059002489 
0.0035456195 
0.0086036474 
0.02865167 
-0.013886061 
0.041056678 
0.005972147 
-0.059356123 
-0.03328013 
0.0093064755 
-0.047330767 
0.0040021688 
-0.028229445 
-0.03977387 
-0.061004933 
0.055612832 
-0.0073399022 
-0.042420633 
0.017487116 
-0.017948851 
0.040786609 
-0.050643966 
-0.045408241 
0.045088165 
-0.039761722 
-0.005709108 
0.0081328824 
-0.041840591 
0.042568825 
0.019157156 
-0.044997007 
0.020853393 
-0.028687898 
-0.036974419 
0.048247688 
-0.045360133 
-0.042795762 
0.026143141 
0.010313205 
-0.053522579 
-0.010924194 
-0.057964887 
-0.0043601245 
-0.04576882 
-0.036792189 
0.0049839914 
0.053533316 
0.0092250332 
0.046308741 
-0.040011384 
-0.017378885 
-0.025817681 
-0.05103796 
0.038435966 
0.028186761 
0.0028040558 
0.006735675 
0.052206777 
0.03967873 
0.0095505565 
0.051751286 
0.03489124 
-0.025656722 
0.042865112 
-0.056626793 
0.048469149 
-0.014856096 
0.054566987 
0.007562682 
-0.020368308 
0.024224214 
-0.055002753 
-0.017780427 
-0.051919825 
0.026965074 
-0.03096091 
0.049861155 
0.054112285 
0.016740985 
0.035506211 
-0.015968472 
-0.033270329 
0.020087563 
0.019781344 
-0.0036622398 
0.058847748 
-0.057552271 
0.058810115 
-0.034421153 
0.0020774156 
0.057313435 
0.0278605 
0.03460677 
0.0040527135 
0.045997106 
0.025694825 
0.042758942 
0.036398724 
-0.038245171 
-0.049502045 
0.021098658 
-0.0094253123 
0.03647279 
0.0068781897 
-0.031646192 
0.026243016 
-0.044354752 
0.016320206 
0.053130887 
-0.045058176 
-0.018940605 
0.003218919 
0.023038849 
0.01400359 
0.039872251 
-0.0017448924 
-0.049506057 
-0.052950203 
0.051534913 
0.056104541 
-0.022512414 
0.028835677 
0.0066493377 
-0.014178317 
0.034919612 
-0.049188703 
0.030809231 
-0.046624497 
0.0052986518 
-0.054762419 
0.019945607 
0.057283618 
-0.017066225 
-0.035530705 
0.041156515 
-0.04341656 
-0.055183396 
-0.056411617 
0.039487883 
-0.050075449 
0.049398921 
0.0050572306 
-0.0043756664 
-0.061025016 
0.010816664 
-0.012085415 
-0.016718846 
-0.026331767 
0.02722276 
0.014326632 
0.055759311 
0.0050179139 
0.0075772256 
-0.019125413 
0.057860255 
-0.020845786 
0.062322646 
-0.058358662 
-0.026433434 
-0.006618619 
-0.011016715 
0.0016288534 
0.056556068 
-0.030704789 
-0.025624469 
-0.031129275 
0.017583422 
0.003410019 
0.040662162 
0.027563363 
0.00056580454 
0.04391063 
0.0092214122 
0.040507503 
-0.031786691 
-0.00023337454 
-0.021789093 
-0.016707465 
-0.035685785 
-0.029653516 
0.057787962 
0.060555585 
-0.0026970841 
0.033033356 
0.047722243 
0.057045661 
-0.026512247 
0.050477616 
0.044393495 
-0.0011943765 
0.058697537 
0.058293663 
-0.0043278337 
0.038660094 
-0.025448076 
0.0040123239 
-0.019767102 
0.059190959 
0.042740516 
0.01579351 
-0.042776834 
-0.032168195 
-0.030778386 
0.0061682016 
-0.01059866 
-0.058795348 
0.024536788 
0.05431506 
-0.048551437 
-0.006143719 
0.054802775 
0.055274703 
-0.05884343 
0.013569877 
0.01950293 
-0.045827501 
-0.0091676451 
0.00088785589 
0.041434787 
0.02869501 
0.042352512 
-0.046116836 
-0.041968927 
-0.0035959706 
0.029939122 
-0.062249221 
0.054792739 
0.0096021667 
-0.0036989897 
-0.035706449 
0.055638306 
-0.051803134 
-0.047628202 
0.023481712 
0.051676519 
-0.037588667 
-0.042805664 
0.035829514 
-0.02426729 
-0.057870079 
0.057707518 
0.019388132 
0.032501563 
0.041583762 
0.030611455 
-0.05716645 
0.052088648 
-0.031955719 
-0.0085407309 
-0.048620664 
0.0075832978 
-0.043797851 
0.017467476 
-0.0014490373 
0.051158093 
0.016871393 
-0.0073701292 
0.044988573 
0.018492892 
0.03893663 
-0.038249791 
0.057717197 
0.0077329278 
0.012235783 
-0.059660506 
-0.039276425 
0.058975264 
-0.0023512654 
-0.0090980493 
-0.031703778 
-0.041613579 
-0.050882671 
-0.050638538 
0.01728113 
0.0076846257 
0.014103465 
-0.016438868 
0.033322275 
-0.036704432 
0.035533652 
-0.0026016347 
0.03279461 
-0.05782 
0.061612517 
-0.05202581 
-0.013436757 
0.024089739 
0.061521269 
0.030475013 
0.05008474 
0.033438332 
-0.027543191 
-0.062089838 
-0.042668514 
0.0053773448 
0.048483878 
0.017843179 
-0.014152266 
0.039889634 
0.0077683851 
0.028332777 
-0.058162767 
-0.031245455 
0.04395546 
0.049709812 
-0.04818885 
-0.060151108 
-0.053965725 
-0.0071924627 
0.0057438836 
-0.059279852 
0.040607169 
0.036680557 
0.050027572 
-0.0065798126 
0.0071670711 
-0.039401665 
0.014646836 
-0.030030943 
0.020260818 
-0.020812698 
-0.036662064 
-0.05219521 
-0.035189509 
-0.0040836409 
0.034849003 
-0.0063823462 
-0.012894306 
0.055796444 
-0.044158068 
0.043946803 
0.045923173 
-0.037837125 
0.031034723 
-0.048970159 
-0.0032231919 
-0.06085876 
0.054811709 
-0.036151316 
-0.053036001 
0.046307966 
0.056901671 
0.049879834 
0.029783137 
-0.056247309 
-0.010524463 
0.033660576 
-0.022332702 
0.050712354 
-0.031549484 
0.043647975 
-0.037801549 
-0.049161334 
0.047825478 
0.011050448 
0.022409588 
0.032550633 
0.034537226 
0.031968504 
0.053416342 
-0.018550988 
-0.044623986 
0.031806134 
-0.042543203 
0.056187883 
-0.056798823 
-0.029368397 
-0.012930233 
0.058895424 
0.053712554 
0.021637954 
0.01430697 
-0.00062509626 
0.0094392747 
0.025356419 
0.035811961 
0.040906549 
-0.022669952 
0.051369071 
-0.061319284 
-0.056640871 
0.021216683 
-0.022503495 
-0.0061442181 
-0.053692717 
0.053513214 
0.042752385 
0.0084391311 
-0.049573652 
-0.021403693 
0.014282741 
-0.043621995 
-0.0089001954 
-0.0063469559 
-0.050273888 
0.03815832 
0.049829498 
0.033436716 
-0.037120335 
-0.023846235 
0.031363331 
-0.038180884 
-0.013886455 
-0.011229895 
0.022581927 
0.04311049 
0.03389135 
0.044548385 
0.042894602 
-0.060888164 
0.031539351 
0.048226483 
0.0021189004 
0.026652656 
-0.011301037 
0.004798606 
-0.04501842 
-0.024330523 
-0.022122249 
-0.00060229748 
0.039347798 
-0.0018166676 
0.060142502 
0.019498065 
0.046768084 
-0.060817491 
-0.053760517 
0.0089116469 
-0.02560566 
0.039044827 
0.031489335 
-0.0098617859 
0.031547338 
0.031992853 
-0.035264567 
-0.030115657 
-0.0068250187 
-0.046793751 
0.049536347 
-0.035757653 
0.012547351 
0.017681919 
-0.0087622181 
-0.054528926 
0.038596682 
-0.043999307 
0.030980907 
-0.0024628416 
-0.0050520226 
0.025604613 
0.041747816 
-0.0067674816 
0.013888873 
-0.049081989 
-0.018055748 
0.031651475 
0.022022694 
-0.0080868229 
-0.031905808 
-0.0071597435 
0.054727532 
-0.0054470375 
0.0013553873 
-0.025010783 
-0.047177389 
-0.019422553 
0.02251298 
0.030451365 
-0.056174766 
0.014679402 
-0.042749994 
0.0081629753 
0.016989641 
0.026534237 
0.041327767 
0.052224807 
-0.007824108 
-0.046497658 
-0.05336947 
0.053059548 
0.022658788 
0.0019485727 
0.038874708 
-0.0092038065 
0.03086751 
0.033252515 
0.057506926 
-0.03745532 
-0.0058419853 
0.054734245 
-0.050411321 
0.036701567 
-0.0067377798 
-0.046397887 
-0.039683461 
-0.01790474 
0.037743077 
-0.061183643 
0.053153187 
0.034968585 
-0.027407713 
-0.0097412691 
-0.0080038011 
-0.027411647 
0.056035526 
0.018056817 
0.047633909 
0.032647006 
-0.032038085 
-0.0090825297 
-0.008549165 
0.010105424 
0.007429935 
0.017133497 
0.050057881 
-0.0024826787 
-0.033621766 
-0.054365385 
0.031129219 
0.012084641 
0.0058937222 
0.0075717345 
0.042737216 
0.014545918 
-0.053711005 
-0.0046927929 
0.049814783 
0.044276513 
0.024887368 
0.015076712 
0.022815518 
-0.039321959 
0.015591078 
-0.05961778 
-0.003564354 
0.0064354464 
-0.0081777684 

