-0.0085729826 
0.0066632219 
-0.012022104 
-0.022260379 
-0.029037952 
-0.022921618 
0.025845416 
0.033348553 
-0.019243235 
-0.0048258379 
0.033226941 
-0.0031532033 
0.042427491 
0.030804794 
-0.03709643 
0.012518989 
-0.030461404 
0.016680405 
0.006247222 
-0.042710867 
0.01827764 
-0.0028581175 
-0.014916264 
-0.028139336 
0.038885165 
0.034445226 
0.0021444631 
-0.013015529 
-0.041025009 
0.03800834 
-0.01908825 
0.024740843 
0.039081279 
0.042159792 
-0.034433987 
-0.017569067 
-0.034198232 
-0.006844569 
0.031839214 
-0.026405353 
-0.021828933 
-0.0059184209 
-0.015925229 
0.012749558 
-0.039718557 
0.005694977 
-0.020649036 
-0.040002864 
0.020495696 
-0.01706237 
-0.014714287 
0.021993579 
0.034904297 
-0.03188907 
-0.028358299 
-0.036807358 
0.04143976 
-0.038764037 
0.005884585 
-0.0058251317 
-0.041564219 
0.036294669 
0.0070636747 
-0.010240764 
-0.0080616781 
-0.0044293068 
-0.0039241668 
0.039193951 
-0.012792264 
0.0016386273 
-5.2051357e-05 
-0.020839022 
0.019830955 
0.029031433 
-0.019841155 
-0.0056022541 
0.017791353 
0.022484552 
0.038760807 
0.018065872 
0.027680727 
-0.023147253 
-0.020348525 
0.012859873 
-0.0094196228 
-0.013175233 
0.004613963 
0.0077134157 
-0.017706955 
-0.034738936 
-0.020819165 
0.033433214 
0.010215869 
-0.0007445715 
-0.02113317 
-0.031081574 
-0.009513176 
0.044076357 
0.010361607 
0.0061753509 
0.031851321 
-0.0033417945 
-0.0432509 
0.0060774386 
-0.024495453 
-0.0038846959 
-0.033651602 
0.018876346 
0.036079921 
0.018682001 
0.02040006 
0.042312726 
0.022011559 
-0.011895042 
0.038926356 
0.029678805 
-0.016847994 
-0.023511054 
-0.02902836 
-0.0084222993 
-0.029285217 
0.041040577 
-0.010370097 
0.011800391 
-0.00099475251 
0.018512134 
-0.021731136 
-0.031342145 
0.022055278 
0.035788674 
0.004581294 
-0.031261884 
-0.031738598 
0.0040645208 
-0.019541746 
0.036882073 
0.032891326 
-0.026174039 
-0.013427528 
0.0026988101 
-0.035267249 
0.034216817 
-0.011052463 
-0.01966517 
-0.023335814 
0.036198925 
-0.012760954 
-0.002552903 
0.023527829 
-0.015565368 
0.023245689 
0.024047669 
-0.025617188 
0.025158823 
0.0033869997 
-0.026714923 
-0.021186976 
-0.040267728 
-0.0015302546 
-0.015190251 
0.0057813306 
0.026773864 
0.034357615 
0.039938807 
0.021699226 
-0.023105105 
-0.028628536 
-0.025269141 
-0.029732702 
0.031701006 
-0.039175764 
-0.031053735 
0.013923622 
-0.013667976 
0.041350316 
0.0080093397 
-0.006941936 
0.0090216594 
-0.01651204 
-0.030555272 
0.024343355 
0.036572669 
-0.035138976 
0.031309135 
-0.00017027854 
-0.0010149725 
-0.03600549 
0.039308447 
-0.024641031 
0.022496803 
-0.0063518407 
0.0028122694 
-0.035534915 
-0.021100562 
0.027216543 
0.026440261 
-0.034939207 
-0.029321991 
0.0081329243 
-0.020729488 
0.027650014 
0.019397449 
0.0034824729 
-0.014559041 
-0.021312118 
-0.011971122 
0.023647511 
0.0023051482 
-0.03153969 
-0.035242297 
-0.020235563 
-0.022586141 
-0.043424305 
0.023090694 
-0.02783897 
-0.030689619 
-0.016990896 
-0.039369799 
0.00036871116 
-0.0041199806 
-0.00066059123 
-0.035908416 
-0.041143369 
0.027805319 
-0.0018174379 
-0.036241841 
-0.034844119 
-0.0023201129 
-0.044097859 
-0.036984168 
-0.0054421723 
0.014630072 
0.021344418 
0.020156683 
0.028342938 
0.0024608807 
-0.027152652 
0.037300255 
-0.038446318 
-0.041084517 
0.0078734523 
0.0015725252 
-0.016950354 
0.025588447 
0.044125475 
0.020291632 
-0.0386803 
-0.040232982 
0.038852751 
-0.0019256579 
0.035652157 
-0.015159581 
0.015182633 
0.0053340578 
0.031094607 
0.024858274 
-0.019840008 
-0.017829834 
0.018776562 
0.013458147 
-0.015113707 
-0.041605074 
0.026895721 
-0.038514402 
0.043984059 
0.011176791 
-0.011949047 
0.0098036621 
-0.0052329605 
-0.0097353347 
0.036997303 
0.012877116 
0.011858047 
-0.031220991 
-0.00055046414 
0.0086437017 
-0.016379606 
-0.034253199 
0.021006521 
-0.023091404 
0.00646608 
-0.022847569 
-0.0097650429 
-0.002242581 
-0.026600402 
0.017488092 
-0.02722864 
-0.013659277 
-0.013916496 
0.011082592 
-0.00162376 
0.024887709 
-0.024343593 
0.0023409412 
0.024460346 
-0.020028872 
0.02264135 
-0.005724967 
-0.027878052 
-0.017411454 
0.04189324 
0.042514767 
-0.022868896 
0.042840831 
-0.040152043 
0.043709341 
0.021230696 
-0.033295702 
-0.018194715 
0.0079445653 
-0.0083317123 
0.017155327 
-0.0071939426 
0.04387949 
0.03466624 
0.029049236 
0.027771054 
0.039595358 
0.036215801 
-0.01489599 
0.024467852 
0.0024252667 
-0.00057312864 
0.0015849796 
-0.001431062 
-0.036814231 
-0.040630471 
-0.022927836 
0.0078584431 
0.029223181 
-0.032713011 
-0.041433971 
0.022289034 
0.037476767 
0.028285161 
0.033417381 
0.0013727914 
-0.039124474 
0.0042021512 
0.012285174 
0.036980078 
-0.038022816 
0.020089585 
-0.042038418 
0.00039208686 
0.028205249 
0.031005988 
-0.0048676552 
-0.00080398802 
0.030137725 
-0.016456828 
0.025688419 
0.0034647922 
-0.016173039 
-0.00260374 
0.025727136 
0.0092856353 
0.037299771 
-0.042909466 
0.042649314 
0.014709397 
-0.018589394 
0.023061469 
-0.02904628 
0.026810838 
-0.021863632 
0.007269741 
-0.0069388989 
0.016718259 
-0.023827426 
-0.0077950726 
-0.0057175043 
0.043100424 
-0.0049370131 
0.021585904 
0.019639583 
0.037783738 
0.034012243 
0.014858565 
-0.0021289585 
0.0037935851 
0.0010154862 
0.032952379 
0.029284889 
-0.042720869 
-0.016024856 
-0.041164581 
-0.024002841 
0.013061003 
0.010716468 
-0.0091333007 
0.032201882 
-0.038931753 
-0.0049030245 
-0.019061355 
-0.0070790662 
-0.019302661 
-0.02588152 
-0.012765211 
-0.022730483 
-0.025890348 
0.025431866 
-0.042016998 
0.0044064689 
-0.043068767 
-0.0086713396 
0.042448841 
0.025069151 
-0.0030976089 
0.0027331703 
-0.043641355 
-0.019500336 
-0.017019425 
-0.036811031 
-0.013813155 
-0.019558392 
0.012976903 
-0.036218334 
0.040794134 
-0.026193218 
-0.026634499 
-0.032546341 
0.042947732 
-0.0091916611 
-0.030616136 
0.042094205 
0.022683723 
0.040064018 
0.033847239 
-0.019729134 
-0.035049938 
-0.042122837 
-0.013962776 
0.010997904 
-0.012552367 
-0.0047757491 
-0.020095367 
-0.011506577 
0.0090972288 
0.032993581 
-0.0026771124 
0.0046583489 
0.039876085 
-0.04035892 
-0.0042854887 
-0.010396237 
-0.01623288 
-0.025569154 
0.034217231 
-0.018708767 
0.037652377 
-0.032341979 
-0.03667054 
0.0074997735 
-0.0014776395 
0.013120577 
-0.038021091 
0.003334448 
-0.028565448 
-0.038401108 
-0.038728114 
0.013805169 
-0.011316302 
-0.0016621083 
-0.027404964 
-0.01439563 
-0.028966112 
-0.027953204 
0.0095166424 
0.021854637 
0.01427126 
0.036184274 
-0.017484754 
0.0016726766 
-0.037339322 
-0.015222662 
0.013827886 
0.0090741478 
-0.0011409363 
-0.010235583 
-0.0010387696 
-0.020844819 
-0.0068504987 
-0.0014165688 
0.021490119 
0.010495476 
0.017221097 
-0.042706776 
0.001003037 
-0.0050191786 
-0.041127183 
0.037059337 
0.015409278 
-0.013220969 
-0.018441154 
-0.039619517 
0.040040858 
0.0064216834 
0.010906656 
0.0037932321 
-0.0099280272 
0.030657638 
0.0043105427 
0.030838553 
0.0074136518 
0.035192121 
-0.042594731 
0.024214359 
0.011960495 
0.0325923 
-0.0099966424 
0.026526878 
0.0013601842 
-0.03186829 
-0.024113419 
0.017896706 
-0.023108395 
-0.030548221 
0.012229019 
-0.0056451252 
-0.034572024 
0.038124152 
-0.017431526 
0.030832285 
-0.043682635 
-0.019363871 
-0.028395232 
-0.004407201 
0.035876334 
0.033630144 
-0.016998546 
0.032586932 
0.0067801317 
-0.040882312 
0.0077934526 
0.035582744 
-0.028102934 
-0.04370271 
0.042650498 
-0.028144117 
-0.023290301 
-0.041033134 
0.021207009 
-2.8343755e-05 
0.038301405 
-0.028312484 
-0.042639449 
0.01113556 
-0.037194997 
0.01070483 
-0.0039294874 
0.027827082 
0.040260687 
-0.038211484 
-0.043079168 
0.038321849 
0.018114451 
0.016629312 
-0.024468191 
-0.01656723 
0.017473262 
0.003074012 
-0.040750362 
-0.042473953 
-0.0015662243 
0.025691174 
0.042168457 
-0.0046690437 
-0.024182998 
0.020727193 
0.012006736 
-0.023447216 
-0.015436433 
0.016625687 
-0.040842056 
0.022459591 
-0.011108887 
-0.014651408 
0.0098815607 
-0.042637702 
0.010276966 
0.013865849 
-0.028028123 
-0.031737152 
-0.015436965 
0.024825109 
-0.029170796 
-0.021099284 
0.041291352 
-0.034912851 
0.043766152 
-0.029391475 
0.029740181 
-0.015927065 
0.024577007 
-0.029889902 
0.03193431 
-0.019221725 
0.036764365 
-0.021936556 
0.01764706 
-0.01992077 
-0.027395587 
-0.016885107 
-0.029610053 
0.022079706 
-0.016396001 
0.017271867 
-0.026810814 
0.013820457 
-0.002888608 
0.01774524 
-0.043922335 
-0.0024944691 
-0.026935343 
0.0053818468 
-0.029217212 
-0.0075805821 
-0.031089844 
0.033220571 
0.040682845 
0.019304885 
-0.010873096 
-0.016495597 
0.020018756 
0.014445421 
-0.013355551 
0.027755296 
0.025631921 
0.028996482 
0.026934097 
-0.038248949 
-0.039550904 
-0.013098205 
0.00082792743 
0.043961566 
-0.022293305 
-0.040895045 
0.037314538 
-0.040552806 
-0.040058162 
0.03596678 
-0.034522556 
-0.028332388 
-0.025589036 
0.0016543481 
0.022103662 
-0.041969586 
-0.012513641 
-0.0038992313 
0.032743249 
-0.013499075 
0.040509094 
0.0098999152 
0.029401878 
-0.020495333 
0.020190379 
0.04280705 
0.020074502 
0.023933709 
-0.027690342 
-0.022030707 
-0.0076697939 
0.021195207 
0.016037017 
0.035340879 
-0.023734098 
0.0079894299 
-0.0094572157 
-0.02357059 
-0.039466564 
-0.035186756 
-0.01958371 
0.01991771 
-0.034081656 
0.020260885 
0.042218681 
0.0062292041 
0.0037424082 
-0.032571498 
0.028276404 
-0.00057405588 
-0.029256087 
0.010889739 
-0.040923662 
-0.0013920709 
0.018088954 
0.011859812 
-0.032031793 
0.010029859 
0.03185939 
-0.033404619 
0.035652723 
-0.01137118 
0.0046942527 
0.001801077 
0.022411728 
0.018532312 
0.020229738 
-0.0069050947 
0.025788454 
-0.0042638252 
0.011471845 
-0.010798892 
0.043500204 
0.019237513 
-0.040311046 
-0.002790519 
0.028942183 
0.031597722 
0.042766687 
0.041742433 
-0.0021117071 
0.01206837 
0.017867504 
0.014922328 
-0.0028555542 
0.026965996 
-0.028274456 
0.016687581 
0.020222206 
0.037684903 
-0.00050266966 
-0.018999565 
0.040820237 
-0.022961531 
-0.04282707 
0.043203816 
-0.0391974 
-0.034774445 
-0.022550518 
0.034925327 
-0.036734097 
-0.010096649 
-0.017581878 
0.0093318969 
0.040875129 
0.034974493 
0.0024866692 
0.040677413 
-0.032073047 
0.023453847 
-0.016763533 
-0.040215842 
-0.028746858 
0.0095155304 
-0.023326647 
0.0014883316 
-0.0098001854 
-0.040141676 
-0.0074150818 
-4.1051029e-05 
0.035914499 
-0.013330305 
0.033113904 
0.043720163 
-0.017207855 
-0.013389935 
0.041395411 
-0.019231854 
0.011405732 
-0.038630709 
0.024231276 
-0.033957772 
-0.039739996 
0.042165339 
0.01943567 
-0.038529228 
0.0042253109 
0.020484643 
-0.015427317 
0.031685837 
-0.033709418 
0.0024010586 
-0.011523067 
0.0067476104 
-0.015809709 
-0.033402931 
-0.043214276 
0.022918766 
-0.03507923 
0.0076766848 
-0.030412843 
-0.036389153 
-0.0059211235 
0.011512422 
-0.03622127 
-0.006820722 
0.016058339 
-0.033629421 
0.019237908 
-0.0197016 
0.040893994 
-0.039744005 
0.015659893 
-0.019455791 
0.040491946 
0.033311836 
0.0060203453 
0.039127536 
-0.0081992 
0.035195377 
0.030158319 
0.022595216 
0.021119026 
-0.019421043 
0.0058767195 
-0.018366754 
0.040616855 
-0.0019203131 
-0.034427807 
0.021829454 
-0.014775191 
0.0052324785 
0.01878692 
0.037032049 
0.043448955 
0.027358746 
0.0098529793 
0.014656108 
0.021101087 
0.034662757 
-0.038356442 
-0.038540386 
0.011178235 
-0.029122157 
-0.019640502 
0.017197153 
0.036905684 
-0.031454623 
0.041859176 
0.041709937 
0.033559185 
0.040290523 
-0.0084968517 
0.011988228 
-0.014843772 
-0.037064701 
0.02908751 
0.0092783067 
-0.030869938 
-0.029424945 
-0.030614931 
0.002278938 
-0.012336704 
-0.0077735516 
0.010508568 
-0.037840433 
-0.0087055471 
0.018615851 
-0.028688019 
0.031521752 
-0.021263983 
0.035816871 
0.013635785 
-0.00031290611 
0.018547969 
-0.037280411 
-0.036107395 
0.041771624 
0.032795656 
-0.024205141 
0.040401414 
0.040671177 
0.013969836 
-0.031037232 
0.025656899 
0.038666718 
0.016311683 
-0.035461888 
-0.010091075 
0.016563078 
0.017133458 
-0.041344743 
-0.015711956 
-0.018972039 
0.0067891092 
-0.043200381 
-0.0051343739 
-0.0082909465 
0.036490411 
0.035085175 
0.01158277 
-0.022989994 
0.01885532 
0.0076957457 
0.0045974837 
-0.026470155 
0.0083285486 
-0.017886266 
0.014804154 
0.038139313 
0.033411391 
0.019841518 
-0.014151642 
-0.0039714975 
-0.018747365 
0.034185085 
-0.035614006 
0.027169919 
0.042871762 
0.04171823 
0.034199581 
0.029728895 
-0.016109698 
0.041746348 
-0.012248212 
0.038351651 
0.032538567 
0.0058541973 
-0.040675975 
-0.037042923 
-0.041743997 
0.0004662495 
0.01231465 
-0.03855031 
0.0044282009 
0.011014473 
-0.041526396 
0.018633543 
0.041920844 
-0.028553171 
-0.024501188 
0.005523392 
-0.023896392 
-0.025713369 
-0.0081808958 
0.017601471 
-0.015068649 
0.022441622 
0.015063531 
0.029101893 
0.026595468 
-0.030773781 
-0.019779488 
0.014240735 
-0.018556947 
-0.020414352 
-0.0070900219 
0.036343858 
0.011150339 
-0.0076501849 
0.036527988 
0.041065279 
-0.019321376 
0.0073961765 
-0.024645275 
-0.02180895 
-0.039780375 
0.019175515 
0.0059512667 
0.041282654 
-0.022235045 
0.020561077 
-0.039774403 
0.019658543 
-0.029126801 
0.018941209 
0.014335265 
-0.032635991 
0.03483985 
-0.017983444 
-0.018858897 
-0.01127848 
0.022207279 
-0.031430945 
-0.0075588897 
0.0019930981 
0.017513022 
-0.016240921 
-0.04248026 
-0.043449558 
0.019440887 
-0.043326352 
-0.024853161 
-0.022194369 
0.021194158 
-0.028808363 
-0.028733179 
-0.019982513 
0.017270114 
0.037432294 
-0.015876476 
0.014197587 
0.0016110211 
-0.038064618 
0.024390459 
-0.025499716 
-0.03237734 
-0.015214688 
-0.03391812 
0.041275129 
-0.010589664 
-0.038585961 
-0.042673111 
0.034196708 
0.0053926841 
0.019397333 
-0.015759636 
0.01185329 
-0.030772526 
-0.0035813337 
0.017010562 
0.003760247 
0.023662679 
-0.034759097 
0.013100178 
0.0031687212 
-0.03996525 
-0.0078128641 
0.0068566338 
-0.018436514 
0.040976271 
-0.031230912 
-0.018138623 
-0.028966794 
0.0013322566 
-0.038192045 
0.033324376 
0.016358493 
-0.013831352 
0.039626513 
0.037478369 
-0.027177179 
0.033030216 
-0.020844238 
0.014722352 
0.039711919 
-0.0063465512 
-0.016901044 
-0.026588708 
0.017798308 
0.034495916 
0.0027878243 
-0.023125498 
0.025702728 
-0.02593465 
0.037934661 
0.012512961 
0.010069035 
0.025492126 
0.041950442 
0.031273019 
-0.038082685 
0.0089169089 
-0.02074606 
-0.0092718508 
-0.0074401065 
-0.0095596556 
-0.042419389 
-0.016391885 
0.00068060838 
0.001698597 
-0.010391044 
0.014812926 
-0.025397915 
0.006783572 
-0.032609507 
-0.015733523 
-0.0016501939 
0.0095213261 
-0.031695303 
-0.016781179 
-0.010506898 
-0.03328139 
0.015181705 
-0.0056781154 
-0.0078793615 
0.01701727 
-0.030716324 
-0.034312498 
-0.012549226 
0.025692608 
0.011532531 
-0.016681012 
0.0032163314 
0.041736886 
0.032700006 
-0.011087008 
-0.032710053 
-0.020607021 
-0.0058442978 
-0.024973495 
0.024970453 
0.0018488768 
-0.011021809 
0.042229094 
0.02573259 
-0.021111978 
-0.042527493 
-0.0072382283 
0.019259619 
0.029836828 
0.032814328 
-0.03414401 
0.005115658 
-0.026893202 
0.014480624 
0.039727584 
0.024119634 
-0.014638565 
0.0042410791 
-0.0082569104 
-0.00018271712 
0.023373345 
0.012066179 
-0.036611922 
-0.011775863 
0.00099228427 
-0.0080559086 
-0.043316282 
0.028046025 
0.029948749 
0.0022124408 
0.020471452 
-0.019728638 
0.014840611 
-0.036073241 
0.0040077227 
0.019542255 
0.019008851 
-0.0046158833 
0.032352585 
0.039241537 
0.0020791304 
-0.043606196 
0.037740633 
-0.014719766 
0.028223053 
0.01448114 
-0.021016704 
-0.03750265 
-0.011872648 
0.0063153151 
-0.009733622 
0.033269003 
-0.043947175 
0.041037116 
0.0085497042 
0.034039129 
-0.033989388 
-0.041463014 
0.0055374424 
0.031360395 
-0.034712397 
0.01073877 
0.0090426486 
-0.0092710108 
0.0051154369 
0.020418389 
0.043463111 
-0.035445664 
0.026718488 
-0.031030247 
-0.0094852354 
0.021876732 
-0.034911487 
0.030309469 
0.025882352 
0.009146261 
-0.0091906413 
0.037246872 
-0.038808513 
-0.041950215 
0.00054143945 
-0.0043703173 
-0.035322983 
0.040573291 
0.044174559 
-0.031699542 
-0.0064889048 
0.016390203 
-0.025790228 
0.0011915809 
0.024871403 
0.032181859 
0.014856774 
0.0040910048 
-0.0059362492 
0.01428296 
-0.022535574 
-0.040593196 
0.01057643 
-0.0084803067 
0.03644073 
-0.020111039 
0.030490953 
0.0010161289 
-0.038611095 
0.012622369 
-0.0013566464 
-0.015154658 
0.032723509 
-0.023809973 
0.029318258 
-0.010471163 
0.018209418 
0.034209885 
-0.043866146 
0.029145503 
-0.0071182498 
0.011814062 
-0.016694132 
-0.0046822513 
0.032595865 
-0.011097829 
0.029634107 
0.018516243 
-0.040078424 
0.024484642 
0.03958609 
0.0047351033 
0.027001783 
0.030145401 
0.033999905 
0.038069729 
-0.034629535 
0.00039455245 
0.012774694 
0.015301893 
0.01465957 
-0.0068258741 
0.030686788 
-0.032490421 
0.0036550325 
0.035910022 
0.043562181 
-0.031473007 
0.0072977743 
0.030191442 
0.020245291 
-0.0073612421 
0.032749258 
-0.038011704 
-0.0079471124 
0.032055669 
-0.025790084 
0.026034914 
-0.007719609 
0.000912474 
0.031910297 
-0.017961778 
0.022382531 
0.003776879 
-0.026802052 
0.036535338 
-0.027214289 
-0.02231041 
0.017178519 
0.030613748 
-0.0014894459 
0.042491462 
0.036462154 
-0.0036223189 
-0.023347093 
-0.038735587 
-0.04053187 
-0.017787123 
-0.0080473553 
0.025236236 
0.025191966 
-0.026627835 
0.011415811 
-0.036655482 
0.04373423 
0.026697082 
-0.033898424 
-0.038975198 
0.02593343 
0.037397284 
-0.043380365 
0.026474247 
-0.031475965 
0.043009281 
0.012873517 
0.0073237154 
-0.01864934 
-0.0047473181 
-0.0081983972 
-0.010090285 
0.023473371 
0.042625293 
-0.019858394 
-0.022340462 
0.020005908 
-0.037012924 
0.027024627 
-0.023579232 
0.041279335 
-0.022146644 
-0.042287018 
-0.028980043 
-0.035086658 
0.036419287 
0.043482818 
0.037376516 
0.014156736 
-0.035946053 
-0.0068711978 
-0.02525783 
0.0094400402 
0.033413127 
0.04099831 
0.021523263 
-0.027415005 
0.013443627 
-0.02815157 
0.0023381386 
0.0013335579 
0.029641926 
0.020999614 
0.0061692288 
-0.03755524 
-0.0040284116 
-9.418503e-05 
0.026555201 
-0.029937545 
0.019140616 
-0.010059185 
0.038114365 
-0.031561688 
0.018025365 
0.034222756 
-0.0080985352 
0.024838738 
-0.0051992824 
-0.0076308395 
-0.024621543 
0.033429727 
-0.0018573984 
-0.021469552 
-0.033712 
0.026564242 
0.0021920998 
-0.012315067 
0.033213329 
-0.027300637 
0.038582731 
0.020207012 
0.0098842634 
0.0064901668 
0.039594341 
-0.02274273 
-0.023029266 
-0.014113006 
0.018362749 
0.019092191 
-0.026164906 
-0.0086543364 
-0.042863589 
0.014847012 
-0.026432183 
-0.010382033 
-0.039691091 
0.015481164 
0.013587138 
0.035153314 
0.021089345 
0.014616785 
0.027289642 
0.040829446 
0.008160199 
0.03153374 
0.016136942 
-0.021336576 
-0.021011965 
0.041142851 
0.017055776 
0.005852764 
-0.03766587 
-0.0059012566 
0.0035313843 
-0.038072377 
0.015103718 
0.0041656997 
-0.03141373 
-0.031267427 
0.014330249 
0.0004902574 
-0.012783202 
0.025349669 
0.033671133 
-0.0038447012 
-0.026009645 
0.040603835 
0.0041408697 
0.002631844 
0.034241289 
-0.025435828 
-0.042489443 
0.036631495 
-0.028246081 
1.6827129e-05 
0.014009675 
0.020574842 
-0.041973807 
-0.0018819568 
-0.036907185 
-0.032668106 
0.042105928 
-0.0405039 
0.02481786 
0.0098073287 
0.032880273 
-0.041757502 
0.0032118743 
-0.039506316 
0.01585586 
-0.033291657 
0.025528273 
0.03881114 
0.027753858 
0.013443116 
-0.040669788 
-0.0083882948 
0.035851948 
0.034257226 
0.037175823 
-0.040701158 
0.011207516 
0.015946465 
-0.0010512425 
0.0048609539 
0.042473227 
-0.016641196 
0.029731883 
0.0080994489 
0.043297958 
0.039571848 
-0.040758979 
-0.038988728 
-0.026751256 
-0.032597646 
-0.012399513 
-0.030073849 
0.019016342 
-0.019525042 
-0.038307779 
-0.010570969 
0.0072287638 
-0.041263189 
-0.037799582 
0.039178371 
-0.00020711751 
-0.011896635 
-0.0018264758 
-0.021367498 
-0.039592188 
-0.0090041235 
0.026411602 
-0.036723938 
0.003033472 
-0.014378397 
-0.040253911 
-0.036721408 
0.013355093 
-0.021390155 
-0.010819975 
-0.030013904 
-0.034450028 
0.011055771 
0.012225146 
0.037191279 
0.0068314085 
0.017681731 
0.0017978423 
-0.0098552844 
0.0016045305 
0.042579997 
-0.029956985 
-0.028932715 
-0.036195274 
0.031373959 
0.013659546 
-0.038693331 
0.017497659 
-0.041307211 
0.043850265 
0.029866647 
-0.031785164 
-0.019612372 
4.9469863e-06 
0.00020133023 
-0.035837647 
0.02004051 
-0.0020882552 
0.0028350025 
0.017321302 
-0.025690449 
-0.023193931 
0.0039383913 
-0.0048116394 
-0.020513056 
-0.043640859 
-0.034032721 
-0.019587526 
0.039684899 
-0.043521024 
-0.023812942 
-0.02923293 
-0.03333202 
0.035783429 
0.028186632 
0.031977277 
-0.01429673 
0.02906256 
-0.022036085 
0.024987111 
0.041000057 
-0.03174115 
0.019516345 
0.036489662 
0.025374409 
-0.037152942 
0.037524339 
0.020154322 
0.038315903 
-0.043028329 
0.0046761823 
0.0089814356 
-0.04405928 
0.036313441 
0.040028516 
-0.035933305 
-0.027990093 
0.025277773 
0.00094771403 
-0.032455977 
0.016621489 
0.0016717548 
0.0028365091 
-0.0033002272 
0.0015190357 
0.0027260897 
-0.02826478 
-0.0043792683 

