0.024166455 
-0.030521145 
-0.028092833 
0.039725643 
-0.019072652 
0.036722537 
0.021815203 
-0.0057895835 
-0.037223324 
0.019572638 
-0.0090156849 
0.0081611732 
0.0066105011 
0.0025852455 
-0.032950729 
0.040710747 
-0.0085721659 
-0.010068877 
-0.044139534 
0.0065706568 
0.012227623 
0.010276234 
0.03340853 
0.00010891799 
-0.0084004225 
0.03184199 
-0.037475631 
0.0086812703 
0.032021899 
-0.039115839 
0.033243541 
0.034555193 
-0.0066724098 
0.027150942 
-0.010549208 
-0.017378254 
-0.020206029 
0.0011130772 
0.018374024 
0.026659261 
0.012601428 
-0.041975915 
0.028570104 
0.0041227574 
0.03230134 
0.0015473951 
0.038112793 
0.0099565499 
0.0036184122 
0.011783558 
-0.035644226 
-0.029963633 
-0.029530264 
-0.01388598 
-0.01611298 
-0.029361362 
-0.041492954 
-0.017855201 
-0.017570142 
-0.031902172 
-0.02271924 
-0.042153317 
-0.0024834687 
0.010376195 
0.023649966 
0.029938865 
-0.033039141 
-0.023499994 
-0.026854225 
-0.001744861 
-0.040826131 
-0.027010124 
-0.033829611 
0.0047401614 
-0.0080080377 
-0.0045712497 
-0.027624607 
-0.032606926 
-0.015571764 
0.0058105118 
0.017535569 
0.024618674 
-0.031166 
0.038170192 
0.043213908 
-0.0084997443 
-0.037599657 
0.016204551 
0.043529954 
0.033001002 
0.037852488 
0.022361742 
-0.03887929 
0.0045790127 
-0.0075083133 
-0.01339817 
0.034753818 
-0.041543473 
-0.043548156 
0.029029338 
-0.036720581 
0.030151218 
0.0060492423 
0.029065646 
-0.026547151 
0.00060591364 
0.036589075 
-0.0066878195 
0.0092655476 
-0.0088638617 
-0.040540893 
0.022500005 
-0.034043986 
-0.02623133 
-0.028165156 
-0.0040932889 
-0.037785783 
0.040172316 
0.0030566948 
-0.036113091 
0.039941635 
-0.022617711 
0.024169605 
-0.04102106 
0.001562568 
-0.016639734 
0.019438758 
0.0048545054 
-0.0022275057 
-0.0096048191 
0.00044593471 
-0.029687265 
0.00046917345 
0.017845323 
-0.0079063009 
0.0037683339 
0.012170313 
-0.042186812 
-0.022442404 
0.031354025 
0.017312065 
-0.024435936 
-0.015398287 
0.042089559 
-0.017925719 
-0.020650169 
-0.0031069312 
-0.015979754 
-0.039312147 
0.043185584 
-0.028454917 
-0.0079261148 
-0.0083730454 
-0.027042173 
0.027454652 
0.026045972 
0.0062844586 
-0.037110191 
0.038426138 
-0.042813107 
0.040925927 
0.016350526 
0.043840043 
0.036831457 
-0.023860842 
-0.015442916 
0.039750859 
-0.0079238238 
-0.016403129 
0.01794784 
0.029421661 
-0.0021262716 
0.03328054 
-0.040414963 
0.0026949537 
-0.019525388 
0.0032714594 
-0.00068154617 
-0.044031665 
0.0024769334 
-0.020455524 
0.040961694 
-0.0070265355 
-0.040574096 
-0.0049769762 
-0.038851779 
0.0050321016 
-0.0019638613 
-0.030314883 
0.03888613 
-0.020208383 
-0.0017817132 
0.0073634391 
-0.041684743 
0.04211843 
-0.0046023778 
0.03640325 
0.023131212 
0.0077642556 
-0.0098328171 
-0.034088012 
0.011104767 
0.03652703 
0.012024548 
0.006901362 
-0.011959887 
0.030934254 
-0.0356717 
0.011316798 
0.041531269 
-0.029426439 
-0.009805738 
0.026848037 
0.01218832 
-0.0033024293 
0.020465445 
0.0047468469 
-0.042964403 
-0.027330887 
0.043296471 
-0.011298516 
-0.012463877 
-0.0071160002 
0.0066708555 
0.010319603 
-0.016047535 
0.013451267 
0.0067690052 
0.01548785 
-0.016126066 
-0.021819642 
-0.017109668 
-0.026399352 
0.044048008 
-0.0057883323 
0.0075079971 
0.014769478 
0.033625815 
-0.040729228 
0.028240774 
-0.025247192 
0.040548023 
-0.0032364591 
-0.022694172 
-0.032222655 
-0.0023551579 
0.030860281 
0.002334577 
-0.028571282 
0.015407381 
0.030499492 
-0.019612461 
-0.0037980657 
-0.037076827 
-0.041365411 
-0.021718366 
-0.037120961 
-0.014562573 
0.022102766 
0.0037806355 
-0.024681186 
-0.028626328 
-0.028225547 
0.0087513244 
-0.040589813 
0.03583188 
0.013510567 
-0.014733448 
0.035907097 
-0.0073655043 
-0.012145539 
-0.037151892 
0.023318239 
0.01143111 
0.023852909 
-0.039947532 
-0.024303872 
-0.043567825 
0.021877006 
0.030714447 
-0.026676888 
0.031925533 
0.022540044 
-0.034920204 
0.0088130059 
-0.017169885 
-0.013670233 
0.0030539448 
0.012702333 
-0.024899196 
-0.0039895126 
-0.0056737429 
-0.018798053 
-0.0014172036 
0.035046343 
-0.037894517 
0.026675677 
0.015770918 
-0.0018610468 
0.037139732 
0.029639034 
0.032962166 
-0.03900535 
-0.028320957 
8.4720436e-05 
0.021845812 
0.016905565 
-0.018777074 
0.022531625 
0.0096449321 
-0.01663045 
0.0056024278 
-0.0113599 
-0.011677443 
-0.034337379 
-0.0072239591 
0.038219374 
-0.0019528742 
0.03658165 
0.016661549 
0.025879871 
-0.013347818 
0.043871365 
0.0048517501 
-0.038491577 
-0.0082898689 
-0.0005846268 
-0.034725856 
-0.038355999 
0.039536498 
-0.008913123 
-0.017546132 
-0.012517561 
-0.042968996 
0.02249491 
0.037444528 
-0.013584667 
-0.0099346656 
0.043357462 
-0.036978271 
0.024761753 
-0.00082499819 
-0.031272076 
-0.032988146 
0.012902362 
-0.017114416 
0.029178221 
-0.040638708 
-0.031693593 
0.0033875529 
0.0036180909 
0.017575784 
0.039217632 
-0.0021030828 
-0.013132932 
-0.042516205 
-0.031851146 
-0.020726871 
-0.040972676 
0.013086633 
0.0047103791 
-0.03485037 
0.01443303 
-0.00058818294 
-0.039713372 
0.037406251 
0.0020543428 
-0.036845982 
0.040744405 
0.03988076 
-0.037424382 
-0.038899291 
0.042538088 
0.02087174 
0.029636789 
0.02661779 
-0.026512668 
0.0088656945 
0.01270385 
0.039484031 
0.0082350252 
-0.0012862138 
-0.016963057 
0.043556787 
-0.027425036 
0.021457402 
-0.0027170649 
-0.031804387 
-0.0058343853 
-0.0035462989 
0.019281039 
0.029981619 
-0.023990029 
-0.021289477 
-0.030679282 
0.0063863276 
0.016759532 
-0.036923498 
0.033507045 
0.032198038 
0.030691551 
-0.016921828 
-0.013839576 
0.00999738 
-0.00041284945 
0.0090132402 
-0.017303109 
0.038258262 
-0.0082117599 
-0.016154848 
0.042578958 
0.040699672 
0.015371434 
0.038129795 
-0.002699669 
0.033808324 
0.042823531 
-0.031994425 
0.043228809 
-0.024524953 
-0.043507665 
-0.010036049 
0.013034555 
-0.010923319 
-0.031286627 
0.0036633988 
-0.029146114 
0.012436549 
0.025021799 
0.015668897 
-0.027633848 
-0.032200389 
0.023944577 
0.0233746 
-0.013839123 
-0.0438748 
-0.0016182757 
-0.039314471 
-0.041621998 
0.030677905 
0.021575762 
0.044117317 
-0.010295864 
0.017872967 
-0.0050117844 
-0.0014335776 
0.017878035 
-0.014312058 
-0.0030179436 
0.0051121335 
0.026239136 
5.6771805e-05 
0.032296088 
0.036580227 
-0.030091295 
-0.019236878 
0.037342619 
-0.014355429 
-0.014636802 
0.0282725 
0.037474886 
0.0084365606 
-0.01345094 
0.0027080455 
-0.011867283 
-0.010828092 
0.023275102 
0.0020667182 
0.02986786 
0.0045558373 
-0.024988102 
-0.037079755 
0.030319925 
0.043974735 
0.041804116 
-0.028744154 
-0.025994962 
-0.030578217 
-0.036488742 
-0.019779569 
0.0095474515 
0.032705195 
0.021245236 
-0.0050642965 
0.032355007 
-0.011449221 
-0.021572201 
0.010555178 
-0.035222251 
-0.036090717 
0.012356276 
-0.029851222 
0.018201053 
0.01978842 
0.023898432 
-0.028437618 
-0.0068921451 
-0.0030898855 
0.026597897 
-0.0022927332 
0.01397414 
0.03240446 
0.043998521 
0.013294075 
0.019149162 
-0.028210388 
0.016632896 
-0.033804074 
0.011313352 
0.0061499258 
-0.0035072579 
-0.025931286 
-0.040457692 
0.0052290224 
0.011734104 
0.025981998 
0.012318728 
0.041035213 
0.0069162976 
0.044184826 
-0.0056778812 
-0.0078732027 
0.029464602 
-0.0096916836 
-0.0029347509 
0.02037888 
0.010746635 
-0.038857818 
-0.0030965025 
0.0043932768 
0.011913929 
-0.0090738554 
0.0050889896 
-0.0051625464 
-0.0387973 
0.010245467 
0.0028422463 
0.010864725 
0.017765239 
0.043097053 
-0.0020990632 
-0.040058423 
-0.034703907 
-0.0082245916 
0.016082652 
-0.016244939 
-0.022813126 
-0.0085352501 
-0.0010552148 
-0.016821776 
-0.0012247084 
0.0059166746 
0.036793973 
-0.037995536 
0.020618128 
-0.0053682071 
0.032403871 
-0.019238751 
0.040900607 
-0.033063807 
0.03329983 
0.015282268 
-0.015576908 
-0.035904087 
0.040468596 
0.0017425509 
0.02494506 
0.037185416 
-0.0046896981 
-0.032421269 
0.014510132 
-0.036663845 
0.029164085 
-0.024912963 
-0.040995527 
0.00020095617 
-0.036898047 
-0.028888902 
-0.0085216528 
0.029537065 
-0.022901781 
-0.013525735 
0.0066570998 
-0.010852281 
0.010632965 
-0.0018951857 
-0.037639972 
-0.036472637 
0.0019631158 
-0.030742349 
-3.2979908e-05 
-0.035068344 
0.042859424 
0.022109231 
0.042798243 
0.010487959 
0.0041274987 
-0.018229399 
-0.022945691 
0.032957472 
-0.015667951 
0.0085787382 
0.023751071 
0.0089642759 
-0.025024101 
0.011387615 
0.024310645 
-0.030931147 
0.042043682 
0.011146303 
-0.011458729 
0.02470191 
-0.0036527566 
-0.025186868 
0.031073254 
0.015470416 
-0.039993238 
0.030601751 
0.020439731 
0.020262545 
0.043210365 
-0.0076449113 
-0.025584184 
-0.041582607 
0.031520016 
-0.032951515 
-0.0037302726 
0.010474103 
-0.019060688 
-0.038999949 
-0.025168531 
-0.030990282 
0.017441452 
0.0076429355 
-0.01765422 
0.014580106 
-0.035451736 
0.033884868 
-0.041576352 
0.029729707 
0.008453778 
0.015388051 
-0.039699916 
0.0073137688 
-0.025574697 
0.043354228 
-0.0016115243 
0.020861804 
-0.0094551602 
-0.026625082 
0.0049920939 
-0.02603225 
0.010543771 
0.033974838 
0.028909618 
-0.040238999 
0.0092591988 
0.025148772 
-0.027484478 
0.019970667 
-0.042156052 
0.038501877 
0.019246791 
-0.032774594 
-0.042087104 
0.036810998 
-0.014842123 
0.022602901 
0.042669009 
0.029681465 
-0.028094064 
0.0081674112 
0.043196104 
-0.03577536 
-0.040763181 
0.010121265 
-0.0093203643 
0.017388066 
-0.028886933 
0.0432133 
0.036985323 
-0.04231146 
0.037745509 
0.024259556 
-0.028859038 
0.0046756291 
-0.025363455 
0.0086273653 
0.027669242 
-0.032169685 
0.0099320682 
-0.024928298 
-0.023045197 
0.036402807 
0.0048273788 
0.043982476 
0.014485687 
0.0030032422 
0.03514966 
0.039925534 
-0.04056184 
0.010291765 
0.018026708 
0.010551411 
0.043626003 
-0.026514659 
-0.024674524 
-0.0066139996 
-0.0073841121 
-0.014673923 
-0.018916037 
0.022012845 
0.010359269 
-0.013723535 
0.039568461 
-0.037277926 
0.034838457 
0.026594244 
-0.0053607919 
0.0010990844 
-0.015284871 
-0.0016190632 
-0.025433198 
0.027287818 
0.024781888 
0.020062437 
0.010877843 
-0.017988317 
0.031705648 
-0.043876722 
0.0095803635 
-0.03973252 
0.013835488 
0.031745706 
0.0071150623 
-0.023200065 
0.022648884 
0.036989909 
-0.0226137 
0.025378497 
-0.041338127 
0.019746747 
-0.014548139 
-0.041727122 
-0.027041165 
-0.017627886 
-0.030563777 
0.03242759 
-0.0013040735 
0.026620466 
0.040204067 
0.0040670969 
0.036252104 
-0.018908156 
0.012460425 
0.013325663 
-0.0029370293 
0.036396228 
-0.042623177 
0.001267245 
0.0170429 
0.032384872 
-0.031236198 
-0.0058915708 
0.00093644502 
0.041642029 
0.0086868284 
-0.032863006 
-0.020606795 
-0.022570964 
0.014808669 
-0.0008855685 
0.037502699 
-0.01150825 
0.029733337 
-0.001893455 
-0.034199107 
0.0081311911 
-0.030852025 
-0.031012101 
0.025217559 
-0.036583014 
0.037624337 
-0.0067855343 
0.0069005559 
-0.023985738 
0.010418517 
-0.022022877 
-0.020190148 
-0.021093335 
-0.02999327 
0.015419151 
0.039912291 
-0.011747056 
0.017739445 
-0.033834945 
0.017960047 
0.022817265 
0.03203484 
0.0017130955 
-0.040805168 
-0.018584313 
0.0063232547 
0.0081098014 
-0.015531505 
-0.03695697 
0.0092457123 
0.0029660054 
0.037585773 
0.012304498 
-0.0248976 
-0.026531896 
0.01673213 
-0.001025475 
-0.032620482 
-0.013444046 
-0.03028292 
-0.003682602 
-0.036610559 
0.0077347369 
0.0049964981 
-0.0098108221 
0.036107283 
0.013576785 
0.032822553 
-0.014398817 
-0.0021134852 
-0.019159904 
0.040205613 
0.033408474 
0.028736953 
0.013464253 
0.038315192 
-0.00065429823 
-0.0071269213 
-0.0091912579 
0.001846622 
0.037422754 
0.034878217 
-0.021536654 
0.023218578 
-0.030345051 
-0.036839396 
0.0026683065 
-0.0018602802 
-0.038315397 
0.026099583 
0.024657171 
0.011250827 
-0.028441856 
-0.021335464 
-0.025132308 
-0.028603811 
-0.00071318791 
-0.015776072 
-0.0013115836 
-0.0022732087 
-0.039491802 
-0.0105172 
-0.025411615 
-0.036423448 
0.0065736598 
0.034521334 
-0.012171159 
0.024610808 
-0.0038871879 
-0.0031959086 
-0.042772584 
-0.0089213606 
0.027280722 
-0.029393813 
-0.03195218 
0.037064876 
-0.04119733 
0.02715808 
0.033790752 
0.044075556 
-0.034799229 
-0.027022688 
0.023880314 
0.014832029 
0.039401699 
-0.0050428412 
0.016400497 
0.033455316 
-0.038349446 
0.023351066 
-0.020100901 
-0.0019484988 
0.0056096348 
-0.0015442341 
-0.0013169283 
0.020617768 
0.038057383 
0.0031975708 
-0.029581254 
-0.0092514725 
0.0087252725 
-0.033018272 
-0.037435949 
-0.027110271 
-0.031376407 
-0.012976356 
-0.041122429 
0.042245526 
0.014173822 
0.030875674 
-0.0064131538 
0.023578189 
-0.03890375 
0.014445479 
-0.00231446 
0.031874366 
-0.016218934 
0.018551277 
0.04251178 
-0.024210559 
0.025758078 
-0.022191297 
-0.02325741 
-0.041127447 
-0.0086782733 
0.0096358964 
0.0053155711 
-0.011885675 
0.0025432988 
-0.0012456764 
-0.0014597166 
-0.0030166078 
-0.0051793577 
-0.001464408 
0.008847693 
-0.024405779 
-0.0099072326 
0.035158969 
0.0019678415 
-0.031363662 
-0.032758847 
-0.02312541 
-0.0007422007 
0.012453239 
-0.034569893 
-0.012505961 
0.029766871 
0.035942532 
-0.028267864 
-0.022166232 
-0.033270042 
-0.010712274 
0.044062458 
0.0014148697 
0.021921877 
0.022827523 
0.024365604 
0.036731582 
-0.042492893 
0.0040325578 
-0.0075154784 
0.0026884947 
0.041909818 
-0.036281332 
-0.017960919 
0.00045499631 
-0.026424611 
-0.017490044 
0.034295168 
-0.0051146834 
0.034879386 
0.018805666 
-0.021295393 
0.0032382477 
0.01466705 
0.033996195 
0.042934131 
0.03977862 
0.022952421 
0.039350379 
0.012936279 
0.034342378 
-0.033926804 
-0.02100746 
0.024536045 
-0.036764838 
0.024502255 
-0.03377426 
0.034434561 
0.029562905 
-0.0078830859 
-0.0030352764 
-0.0087024868 
-0.014435453 
0.034188773 
0.0036765169 
0.024014764 
-0.0038642285 
-0.0069136135 
-0.018082149 
-0.035665102 
-0.0093350289 
0.01706126 
0.03701048 
-0.013881531 
-0.0035642879 
0.021003276 
-0.024261368 
-0.040417466 
-0.0026939132 
-0.034095794 
-0.00080211245 
0.036502801 
-0.026651014 
-0.029260317 
-0.036545172 
0.0010139899 
-0.0065868567 
0.01330026 
0.042841937 
-0.022573013 
-0.041217849 
0.028307604 
-0.043571915 
0.023216449 
0.023963328 
-0.01923172 
0.0073047387 
-0.023589903 
0.017616149 
-0.0044404785 
-0.02688203 
-0.03851828 
0.028037742 
-0.029031133 
-0.021022663 
-0.017015141 
0.015712112 
0.0052981908 
0.0076024062 
-0.019771716 
0.021571362 
0.0053810724 
0.021808423 
-0.027027017 
0.016383812 
-0.0010161684 
-0.016671317 
0.021931633 
0.021159302 
-0.041037541 
0.0079046097 
0.022692632 
-0.020191511 
0.023797469 
0.020363081 
0.030746795 
-0.027572386 
0.033705588 
-0.033182818 
-0.028877711 
-0.042474341 
0.0013532774 
0.042270064 
0.015095389 
-0.030520398 
0.013371551 
-0.0047856113 
0.019392161 
0.021782808 
-0.0033953632 
0.022897692 
0.00045436408 
-0.026575001 
0.04057819 
-0.043782346 
-0.0010409771 
-0.017494317 
-0.029216783 
-0.020546876 
0.029459413 
0.030603901 
-0.040796403 
0.0012207729 
0.0026675372 
-0.03890064 
0.015236549 
-0.0087033082 
-0.028969515 
-0.008758286 
0.02957299 
-0.025262902 
0.032856427 
-0.030672247 
-0.029540451 
-0.011879671 
0.036945272 
-0.022420201 
0.024513187 
-0.044014011 
-0.014288008 
-0.019570004 
0.019658133 
0.0098479325 
0.0026463005 
0.010253959 
0.035384659 
0.032683913 
-0.016063498 
0.041772652 
0.017137108 
-0.0036151879 
-0.037170257 
1.6827129e-05 
0.030199818 
0.016487146 
-0.0078651812 
-0.011623402 
0.035880707 
0.016330803 
-0.0037869944 
-0.030657543 
-0.0058982722 
-0.015092971 
0.043481071 
0.031603854 
0.025570666 
-0.043532457 
-0.023597093 
-0.0071774027 
0.036110412 
-0.013929046 
-0.017143577 
0.0011712399 
0.010341619 
0.0023864072 
0.0056652105 
-0.031542081 
-0.022615323 
0.0025565119 
-0.023291847 
0.015690925 
-0.011744909 
-0.035347421 
-0.030888047 
0.029301921 
0.0078747487 
0.0393846 
0.039569627 
0.012738384 
0.030669682 
0.039971918 
0.036241509 
0.0036127383 
0.0007837101 
-0.032322489 
0.033868175 
-0.030708851 
-0.0079757906 
0.039452042 
-0.00051321427 
0.022705287 
-0.0078613674 
0.035617705 
0.035272356 
0.012141554 
-0.012526325 
-0.0060053435 
-0.00030294363 
-0.015436196 
-0.03792879 
-0.0020601668 
0.038096156 
-0.021982217 
-0.024776587 
-0.042804755 
0.040564876 
-0.010643467 
-0.011415513 
0.0017926741 
0.021562891 
0.021623097 
0.041822761 
-0.011272475 
0.01566159 
0.0394319 
-0.0096028065 
0.025397843 
-0.04242168 
0.043008957 
-0.0063424315 
0.00599482 
-0.016605213 
0.04171136 
0.041355882 
0.019770518 
0.038128294 
0.0065698982 
0.036751509 
-0.038042173 
0.0021106668 
0.011545434 
0.036363482 
0.022888472 
0.042148381 
-0.0033331017 
-0.038849346 
-0.02598354 
-0.028713724 
0.0040599899 
-0.019787965 
-0.04270687 
-0.015704561 
-0.039240036 
0.023269333 
-0.036026321 
-0.021974847 
-0.0094731916 
-0.043073419 
0.0064505436 
-0.01375618 
0.033326227 
0.0032110261 
0.024407882 
-0.03134907 
-0.010722013 
0.030695671 
0.038956981 
-0.019663578 
-0.011839247 
0.011809046 
-0.0055072811 
-0.039019603 
0.0027071869 
0.013100299 
-0.0081627173 
-0.015920771 
-0.032642685 
0.014582478 
-0.034827467 
0.042138781 
0.0074917763 
-0.0079999277 
0.019948889 
-0.019410796 
-0.033715881 
-0.023728672 
-0.013167616 
0.037771743 
-0.026936179 
-0.0073662628 
-0.0076775672 
0.014181071 
0.014699213 
-0.035841253 
-0.026668234 
0.022619296 
0.014527001 
-0.026356867 
0.033043414 
-0.041243233 
-0.031016689 
-0.0076290718 
-0.0034821909 
-0.033908542 
-0.016731169 
-0.031821158 
-0.0063150283 
0.041513693 
0.031528659 
0.029810017 
0.0154693 
-0.043635193 
-0.0060926271 
0.04333296 
-0.016191915 
9.3492243e-05 
0.0070456094 
0.0068542468 
-0.03109098 
0.022088125 
-0.034352496 
0.032395158 
0.0060965782 
-0.026725173 
-0.036013279 
-0.017879201 
0.011973809 
-0.016154807 
-0.0074144602 
-0.016386447 
-0.0092309602 
0.041192111 
-0.029329894 
0.021666003 
0.020807171 
-0.002764035 
0.0051910323 
0.002943557 
-0.009622721 
0.035742745 
-0.00029701411 
-0.005477997 
-0.029835697 
-0.011026769 
0.0011542757 
-0.041403163 
0.0085193161 
0.027215784 
-0.027771832 
-0.028982934 
0.010876764 
0.013351653 
-0.0067288708 
0.037149761 
0.021710901 
0.0055018757 
-0.035671957 
-0.041747116 
0.01606643 
-0.027748153 
-0.007256852 
-0.011854481 
-0.015531659 
-0.0092744483 
0.029127777 
-0.036275815 
0.0054331394 
-0.042179272 
0.0079287598 
-0.024948062 
-0.005164003 
-0.034234494 
-0.035707269 
-0.0085135233 
0.026803594 
-0.0050181984 
-0.0031545439 
0.021668168 
-0.026290091 
-0.02774494 
-0.041177996 
-0.01556221 
-0.027992859 
-0.014574531 
0.01198149 
-0.0024894695 
-0.026813827 
-0.026157374 
0.016761949 
0.017187679 
0.030783467 
-0.030725837 
-0.021577233 
-0.034350995 
-0.039757442 
0.039286625 
0.010117562 
-0.043413028 
-0.026431873 
-0.024161708 
-0.0071646478 
0.0065623275 
-0.014447057 
-0.037402291 
0.019720063 
0.029644201 
0.042022977 
0.037252355 
-0.034136631 
0.026379164 
0.0035546019 
-0.020818407 
-0.032036237 
-0.013609987 
-0.0077920831 
-0.032685813 
-0.01579559 
-0.019970343 
-0.042901009 
0.024773965 
-0.0046943105 
-0.043009445 
0.022086924 
-0.020250788 
0.033022612 
-0.0042771357 
-0.013177394 
0.010504491 
-0.0039838045 
0.0042890478 
0.00033884484 
0.0073867775 
0.029010855 
-0.012206844 
-0.034747522 
-0.019973483 
-0.017302664 
0.011517711 
-0.020316018 
0.039975934 
0.043384451 
0.04376132 
-0.01451171 
0.013072272 
0.026692826 
-0.018824929 
0.035867732 
0.0017033964 
-0.012185006 
-0.004596754 
0.029098557 
0.0045881849 
0.02018699 
0.024616161 
-0.020172769 
0.024312872 
-0.034445859 
0.0066890051 
-0.027659362 
-0.00013214881 
0.023240874 
-0.043418746 
-0.014624959 
-0.010470283 
-0.016811097 
0.039104782 
0.032332849 
-0.014016851 
-0.041166298 
0.020461751 
0.022099495 
0.0342579 
0.011279366 
-0.012981477 
0.014943644 
0.035962082 
0.027650265 
0.024184035 
-0.017153012 
0.029786594 
0.035861194 
0.015760234 
0.041547924 
-0.0067038089 
0.01788481 
0.027305974 
0.033300813 
0.01366905 
0.025852118 
0.02084738 
0.0052821487 
-0.010243154 
-0.029975941 
-0.033498742 
0.029546395 
-0.011831772 
0.01571295 
0.022126732 
0.016325908 
-0.0092546158 
-0.036803439 
0.032426041 
-0.0042937626 
-0.028988285 
0.0099399602 
-0.021142246 
0.04030294 
-0.023869829 
0.0025215668 
0.01718816 
0.013729594 
-0.0086661875 
-0.024521127 
0.033632495 
-0.042860106 
-0.024322314 
0.013857852 
-0.010889262 
0.012270133 
0.017047288 
0.01121065 
0.04150103 
0.038970802 
0.043714743 
-0.04346754 
0.0035758491 
0.021066912 
0.0058979089 
-0.034018677 
-0.015975367 
-0.039898016 
0.019201508 
-0.02308131 
0.031055452 
0.01500068 
0.0092701251 
-0.012747583 
-0.040327419 
0.030087201 
0.042557858 
0.0025301017 
0.02539061 
0.024673434 
0.017985698 
-0.041194271 
-0.002025401 
-0.036318127 
0.016846307 
0.016642695 
0.016809765 
0.0093309693 
0.0060210037 
-0.019110808 
-0.020985002 
-0.0083185025 
0.015788231 
0.022090938 
-0.017211687 
0.034076534 
0.018936817 
-0.012228784 
0.037196811 
0.043497659 
-0.032872356 
0.023276461 
0.015552519 
-0.043510094 
0.025454942 
-0.018908983 
-0.036371507 
-0.024604741 
0.0062146634 
0.042315532 
-0.02260928 
-0.036859248 
0.0012171746 
-0.0021089255 
-0.028098473 

