-0.004333429 
-0.032623786 
0.039925992 
-0.036717359 
0.052183963 
0.022229061 
0.025818147 
-0.059487157 
0.02572903 
-0.032025337 
-0.015409477 
-0.026669525 
0.018921793 
-0.058910143 
0.040014647 
0.046752051 
-0.052144669 
0.031744108 
0.052220643 
0.062293194 
-0.014182743 
-0.017808296 
0.025098763 
-0.018386938 
-0.047121305 
-0.040795632 
-0.056252506 
-0.0466896 
0.026920021 
0.032704189 
0.044176988 
0.032020956 
-0.050016921 
-0.044424538 
-0.045829184 
0.025917366 
0.014341928 
0.00062176585 
0.02005332 
-0.025199745 
-0.039614648 
-0.054654893 
0.010021269 
0.015513182 
-0.04392688 
-0.028033912 
0.029088199 
-0.052887402 
0.029845744 
0.032493472 
0.048210956 
-0.016981535 
-0.03488414 
-0.042549029 
-0.024735827 
0.04116337 
-0.014257025 
0.051238544 
0.039396681 
-0.030945074 
-0.060070377 
-0.055355199 
-0.052546613 
0.029620893 
-0.030684117 
0.03620749 
0.025365256 
0.061544634 
-0.011692289 
0.029427551 
-0.02774556 
-0.027392227 
-0.023741465 
0.06009315 
-0.0045011453 
-0.051009204 
0.00032944977 
0.052093841 
-0.047998276 
-0.038066395 
-0.034538589 
-0.018311918 
0.024052829 
-0.028461732 
-0.023522425 
-0.005750183 
0.052836232 
-0.049718745 
-0.031175051 
0.033470266 
-0.054004077 
-0.060041212 
0.011478946 
-0.030501015 
-0.012861069 
-0.056188446 
-0.0572051 
-0.039905787 
-0.046424143 
0.012719415 
0.00893379 
-0.0017747283 
-0.0541679 
-0.027418409 
0.038300291 
-0.050600998 
0.016671143 
0.056918614 
0.047193825 
0.06140659 
0.0071102157 
0.020349815 
-0.04778887 
0.0428591 
0.012597166 
0.042310089 
-0.0046545416 
-0.0036502182 
-0.051816154 
-0.014537364 
0.051039733 
-0.055202328 
0.0244077 
-0.043749407 
-0.020482898 
-0.022589281 
-0.056615982 
-0.027251158 
-0.014461398 
0.046194479 
-0.029791877 
-0.061741251 
-0.051321968 
0.03371767 
0.041712396 
-0.036366746 
-0.0057100803 
-0.0080592819 
0.017647296 
-0.022317935 
-0.038762979 
-0.032476306 
0.062412858 
-0.0082147531 
-0.0023503974 
0.042523243 
-0.012484137 
0.059208147 
-0.033270791 
-0.058572665 
-0.013254423 
-0.052420974 
0.0013205558 
-0.034544796 
-0.062294982 
-0.06034378 
0.026467718 
0.052724868 
-0.035866253 
0.035193719 
0.051469684 
-0.02475987 
-0.018993743 
0.037831143 
-0.039494358 
0.009206146 
0.039273046 
-0.046142183 
-0.048773337 
0.025899015 
0.048270486 
-0.059963834 
0.048919529 
-0.051792309 
-0.0081499591 
0.015610196 
-0.017161563 
-0.021335337 
-0.00388382 
0.0014296249 
-0.016154889 
-0.05351587 
0.034955919 
0.017771594 
0.0083992854 
0.036520332 
0.040566564 
-0.044826712 
0.019837633 
-0.037154183 
-0.034971654 
-0.051747642 
-0.019978493 
-0.042873781 
0.012758598 
-0.058273092 
-0.02644505 
-0.039497476 
0.04426264 
-0.059267346 
0.0054324269 
0.019824184 
-0.010423012 
-0.033023223 
-0.044105157 
-0.027349453 
-0.06070387 
0.056836464 
-0.036470614 
0.025618143 
0.015147336 
0.05091694 
0.002751261 
0.018224753 
0.030566998 
0.039718822 
-0.060191896 
0.014947928 
0.017289437 
0.048881002 
-0.038586121 
-0.037684124 
-0.038924523 
-0.055954713 
0.0096591264 
-0.056547146 
-0.011663862 
-0.012791008 
-0.03925677 
0.015815735 
0.023985937 
0.025184877 
0.00078106672 
0.028967872 
0.043860368 
0.0069376603 
-0.044155151 
-0.054474462 
0.00260178 
-0.019668363 
-0.03627586 
0.0070827827 
-0.0011152774 
-0.04185437 
-0.017684687 
0.037353702 
0.042872995 
-0.022033449 
0.051879019 
0.048356578 
0.026483878 
0.049727932 
0.036928445 
-0.043738075 
-0.011441048 
-0.057087716 
0.022687338 
0.032413997 
-0.018521752 
0.060882844 
0.0157509 
-0.028691132 
0.013495989 
0.060323939 
-0.034559041 
0.026936486 
0.02301611 
0.050984107 
0.04891213 
0.0065358803 
-0.020541202 
0.023430176 
-0.036228575 
0.04607442 
0.0049130917 
0.01307831 
-0.0095522813 
-0.03816554 
-0.033527963 
-0.013006244 
0.024240337 
-0.035628423 
-0.042943258 
0.047937609 
0.048357368 
0.046958275 
-0.016478378 
-0.021274295 
-0.021381017 
0.03461577 
0.018902346 
-0.059229795 
-0.013333116 
0.039971694 
-0.031850837 
0.019629002 
0.0053918734 
0.00057089329 
0.010914534 
0.035638459 
-0.035022564 
-0.010550689 
0.040926822 
-0.0172159 
0.03831514 
0.056938261 
0.033357129 
0.054042891 
0.00024748594 
0.054824002 
0.018317491 
0.038647935 
0.0037935078 
0.045115285 
-0.05261416 
-0.0022904649 
-0.030519735 
-0.031139225 
0.011582121 
0.045328878 
0.047180004 
-0.010031562 
-0.0043547004 
-0.028636791 
-0.013822373 
0.024869218 
0.036989264 
-0.061855216 
-0.051089555 
-0.033993937 
-0.037541084 
0.051887758 
0.034105644 
-0.050432477 
-0.036161967 
-0.015525211 
0.0020958632 
0.052077293 
0.016028747 
-0.039623134 
0.020814002 
-0.029494222 
0.009965606 
0.022958405 
-0.050607983 
0.030076586 
-0.022266753 
0.0034271777 
0.05871927 
-0.051819272 
-0.01047707 
-0.045892883 
0.037950225 
0.062211432 
-0.016722016 
0.0016568527 
-0.0080773793 
-0.036780685 
-0.016866021 
0.043644376 
0.024161942 
0.017008804 
-0.058011428 
-0.044133693 
0.031540684 
0.061211333 
0.055822171 
-0.025252618 
-0.034322411 
0.051769949 
0.013229936 
0.028278261 
-0.052010179 
-0.060091838 
0.035370626 
0.059285007 
0.035436071 
-0.023991734 
-0.032270536 
-0.043784663 
-0.053814881 
0.0023078397 
-0.036646508 
0.033191629 
-0.029526614 
-0.034735858 
0.021929555 
-0.0071156994 
-0.033422261 
-0.020581454 
0.045012683 
-0.024166439 
-0.050114915 
0.046238109 
-0.05055014 
0.049693532 
0.040799946 
-0.039346829 
0.053578548 
-0.029394805 
-0.00061061233 
0.052885957 
-0.041406088 
0.052751862 
0.029083326 
0.018482387 
-0.010606129 
0.057100952 
-0.056080338 
-0.02608053 
0.054459795 
0.051117614 
-0.018784098 
-0.050396092 
0.013887905 
-0.01096683 
0.056372628 
0.053372122 
-0.0089135841 
-0.0042884126 
0.033457302 
-0.034994978 
0.059255771 
0.059409879 
0.039980426 
-0.013865545 
-0.042160623 
-0.034949508 
0.052945338 
-0.038357679 
0.058929026 
-0.021077886 
0.020403638 
0.027053289 
0.059526622 
0.016377389 
0.0085452944 
-0.020645622 
0.0061684027 
-0.038623333 
0.056039214 
-0.049666807 
0.040292673 
0.059842013 
0.046128333 
-0.0048404448 
0.029068738 
-0.062231284 
0.021216422 
0.04346668 
0.014775261 
-0.025716588 
-0.023863766 
0.0012693182 
-0.049818188 
-0.020198889 
0.0098767579 
-0.027675699 
-0.015190884 
0.050723888 
0.048924953 
-0.0042203851 
0.036532797 
-0.058320373 
0.0071904138 
0.021031603 
0.012245476 
0.050833948 
0.046292253 
0.035760485 
0.018048599 
0.00099617988 
0.03948161 
-0.026202817 
0.052589111 
-0.011445742 
-0.034549572 
-0.047824003 
-0.058353081 
-0.05880307 
-0.025300175 
-0.010831784 
0.0016799122 
-0.011325777 
0.032414392 
-0.032505669 
-0.030704889 
0.048727266 
0.039889634 
0.044535987 
0.0036209449 
0.0016979575 
0.042344078 
0.015385687 
-0.0081822649 
-0.0094829202 
-0.047454674 
-0.030207332 
-0.0040445998 
-0.049221288 
0.059457451 
-0.027851548 
0.03957209 
-0.038427107 
0.0069689006 
0.0072470307 
-0.056450605 
0.045782819 
0.036163472 
0.05894962 
0.032065377 
0.023565263 
0.059978954 
0.0047453567 
0.026929095 
0.044976205 
-0.059802376 
-0.057059985 
-0.021001205 
0.00015105307 
-0.00048151612 
0.021153815 
0.0062451288 
0.030846529 
-0.0015784241 
-0.041588504 
-0.05240678 
-0.0475045 
-0.046846636 
-0.024106011 
-0.055415437 
0.015334539 
0.027839787 
-0.036984868 
0.046281174 
0.03465303 
0.054008149 
-0.017061722 
0.012416668 
-0.049588487 
-0.011299595 
0.0063935816 
-0.028306145 
-0.02777639 
-0.029865153 
-0.04052164 
-0.046328425 
0.025896952 
-0.00023576245 
-0.056466635 
0.039217278 
0.048465371 
-0.024892353 
-0.0096620172 
-0.036537897 
-0.052053936 
-0.03392484 
0.010569304 
0.028017238 
0.024521463 
-0.023355775 
-0.03225283 
-0.022467848 
-0.039366823 
0.043319158 
-0.062406398 
-0.013856992 
-0.043460064 
-0.013887577 
0.01748012 
-0.019728318 
0.058523744 
-0.062199891 
-0.048777029 
0.019817092 
0.007100217 
0.025633208 
-0.016436595 
-0.015496623 
0.011303172 
0.034938969 
-0.019193932 
0.03993313 
-0.023357902 
0.01117824 
0.055940658 
-0.019425306 
0.055207297 
0.042250559 
0.053814836 
0.058773533 
0.0030739084 
-0.0038877241 
-0.041152794 
0.053972617 
-0.034791697 
0.0045931563 
-0.0519371 
-0.037116461 
0.029300317 
-0.013196118 
-0.0096207932 
-0.026425492 
0.048514865 
0.050830536 
0.026326843 
0.049216047 
0.002506949 
0.027789101 
0.025134161 
-0.01390579 
0.023563452 
0.057730988 
0.014576346 
-0.030342199 
0.052692324 
-0.042282082 
0.011064671 
-0.045228586 
0.022033922 
-0.052158743 
-0.025627203 
-0.047345322 
0.025803179 
-0.047991082 
-0.050889157 
0.046717219 
-0.030721098 
-0.030907597 
-0.016716711 
0.0014238432 
0.0099931955 
0.015443012 
0.03820657 
0.058270887 
0.050575592 
-0.0078887567 
0.031447545 
-0.060124353 
-0.041622184 
0.024344347 
0.050372377 
-0.024668828 
0.015912384 
0.051067464 
-0.024219476 
0.044004284 
0.014114745 
-0.013012823 
-0.027569208 
-0.0062428638 
0.020091966 
-0.022476211 
-0.031035393 
0.049027778 
0.041677706 
-0.057029311 
0.037486389 
-0.046351738 
-0.041819908 
-0.029857371 
0.060781375 
-0.012604676 
-0.012323998 
-0.026611187 
0.011856273 
-0.055386595 
0.020637207 
0.030669026 
-0.010271095 
0.012942933 
-0.0051933564 
0.046773709 
-0.016399641 
0.055897728 
0.0013361424 
-0.054264702 
0.048026785 
-0.057373349 
0.012580611 
0.045589209 
-0.011877373 
-0.0051646791 
-0.029950935 
0.058473505 
-0.046702236 
-0.013871945 
0.020313069 
0.049645774 
-0.00083133578 
0.018753029 
0.062027954 
0.053390205 
0.041493952 
0.0094486251 
-0.0079792663 
-0.054408897 
0.0088047981 
0.033347912 
-0.04305518 
0.059217542 
0.044340253 
-0.039035425 
0.030218922 
-0.047497422 
0.055613637 
-0.0023678578 
0.05327975 
0.042245157 
-0.054069191 
0.020276137 
0.034482382 
0.051626869 
0.024102233 
0.052293114 
0.023683123 
-0.016327519 
0.025055483 
-0.045681022 
0.011750855 
0.03359282 
0.021093845 
0.047397502 
0.017192245 
0.023801446 
-0.047691025 
0.0088069811 
-0.018023763 
0.060737193 
-0.049794823 
-0.03228182 
-0.055624083 
-0.020858385 
0.0058106333 
0.058881767 
-0.052832089 
0.053730048 
0.007264182 
0.050858289 
0.021276936 
0.060664915 
0.025293618 
0.0041602477 
0.048497312 
0.0040503517 
0.047351651 
-0.05829953 
-0.047028255 
0.062221751 
-0.043369949 
-0.038918704 
-0.026521709 
0.0042528212 
0.041396365 
0.054361902 
0.058050543 
0.0007660687 
-0.013948627 
-0.029996585 
-0.013626229 
-0.0031017773 
0.00047428161 
-0.016450614 
-0.01814815 
0.00414408 
0.01563441 
0.01503697 
0.01603578 

